digraph Tree {
node [shape=box, style="filled, rounded", color="black", fontname=helvetica] ;
edge [fontname=helvetica] ;
0 [label="preco <= 60077.301\ngini = 0.487\nsamples = 6700\nvalue = [2800, 3900]\nclass = yes", fillcolor="#c7e3f8"] ;
1 [label="preco <= 40070.154\ngini = 0.194\nsamples = 2932\nvalue = [319, 2613]\nclass = yes", fillcolor="#51a9e8"] ;
0 -> 1 [labeldistance=2.5, labelangle=45, headlabel="True"] ;
2 [label="gini = 0.0\nsamples = 1291\nvalue = [0, 1291]\nclass = yes", fillcolor="#399de5"] ;
1 -> 2 ;
3 [label="km_por_ano <= 6267.575\ngini = 0.313\nsamples = 1641\nvalue = [319, 1322]\nclass = yes", fillcolor="#69b5eb"] ;
1 -> 3 ;
4 [label="gini = 0.0\nsamples = 2\nvalue = [2, 0]\nclass = no", fillcolor="#e58139"] ;
3 -> 4 ;
5 [label="preco <= 41554.541\ngini = 0.312\nsamples = 1639\nvalue = [317, 1322]\nclass = yes", fillcolor="#68b4eb"] ;
3 -> 5 ;
6 [label="km_por_ano <= 28118.389\ngini = 0.414\nsamples = 106\nvalue = [31, 75]\nclass = yes", fillcolor="#8bc6f0"] ;
5 -> 6 ;
7 [label="preco <= 41488.75\ngini = 0.369\nsamples = 78\nvalue = [19, 59]\nclass = yes", fillcolor="#79bded"] ;
6 -> 7 ;
8 [label="idade_do_modelo <= 18.5\ngini = 0.351\nsamples = 75\nvalue = [17, 58]\nclass = yes", fillcolor="#73baed"] ;
7 -> 8 ;
9 [label="preco <= 40616.676\ngini = 0.278\nsamples = 54\nvalue = [9, 45]\nclass = yes", fillcolor="#61b1ea"] ;
8 -> 9 ;
10 [label="km_por_ano <= 26129.244\ngini = 0.091\nsamples = 21\nvalue = [1, 20]\nclass = yes", fillcolor="#43a2e6"] ;
9 -> 10 ;
11 [label="gini = 0.0\nsamples = 18\nvalue = [0, 18]\nclass = yes", fillcolor="#399de5"] ;
10 -> 11 ;
12 [label="km_por_ano <= 26870.345\ngini = 0.444\nsamples = 3\nvalue = [1, 2]\nclass = yes", fillcolor="#9ccef2"] ;
10 -> 12 ;
13 [label="gini = 0.0\nsamples = 1\nvalue = [1, 0]\nclass = no", fillcolor="#e58139"] ;
12 -> 13 ;
14 [label="gini = 0.0\nsamples = 2\nvalue = [0, 2]\nclass = yes", fillcolor="#399de5"] ;
12 -> 14 ;
15 [label="km_por_ano <= 21243.288\ngini = 0.367\nsamples = 33\nvalue = [8, 25]\nclass = yes", fillcolor="#78bced"] ;
9 -> 15 ;
16 [label="preco <= 40697.801\ngini = 0.465\nsamples = 19\nvalue = [7, 12]\nclass = yes", fillcolor="#acd6f4"] ;
15 -> 16 ;
17 [label="gini = 0.0\nsamples = 2\nvalue = [2, 0]\nclass = no", fillcolor="#e58139"] ;
16 -> 17 ;
18 [label="km_por_ano <= 14815.584\ngini = 0.415\nsamples = 17\nvalue = [5, 12]\nclass = yes", fillcolor="#8bc6f0"] ;
16 -> 18 ;
19 [label="gini = 0.0\nsamples = 4\nvalue = [0, 4]\nclass = yes", fillcolor="#399de5"] ;
18 -> 19 ;
20 [label="idade_do_modelo <= 16.5\ngini = 0.473\nsamples = 13\nvalue = [5, 8]\nclass = yes", fillcolor="#b5daf5"] ;
18 -> 20 ;
21 [label="preco <= 41367.605\ngini = 0.5\nsamples = 10\nvalue = [5, 5]\nclass = no", fillcolor="#ffffff"] ;
20 -> 21 ;
22 [label="idade_do_modelo <= 4.5\ngini = 0.408\nsamples = 7\nvalue = [5, 2]\nclass = no", fillcolor="#efb388"] ;
21 -> 22 ;
23 [label="gini = 0.0\nsamples = 1\nvalue = [0, 1]\nclass = yes", fillcolor="#399de5"] ;
22 -> 23 ;
24 [label="km_por_ano <= 18800.31\ngini = 0.278\nsamples = 6\nvalue = [5, 1]\nclass = no", fillcolor="#ea9a61"] ;
22 -> 24 ;
25 [label="gini = 0.0\nsamples = 4\nvalue = [4, 0]\nclass = no", fillcolor="#e58139"] ;
24 -> 25 ;
26 [label="preco <= 41269.59\ngini = 0.5\nsamples = 2\nvalue = [1, 1]\nclass = no", fillcolor="#ffffff"] ;
24 -> 26 ;
27 [label="gini = 0.0\nsamples = 1\nvalue = [0, 1]\nclass = yes", fillcolor="#399de5"] ;
26 -> 27 ;
28 [label="gini = 0.0\nsamples = 1\nvalue = [1, 0]\nclass = no", fillcolor="#e58139"] ;
26 -> 28 ;
29 [label="gini = 0.0\nsamples = 3\nvalue = [0, 3]\nclass = yes", fillcolor="#399de5"] ;
21 -> 29 ;
30 [label="gini = 0.0\nsamples = 3\nvalue = [0, 3]\nclass = yes", fillcolor="#399de5"] ;
20 -> 30 ;
31 [label="km_por_ano <= 25271.466\ngini = 0.133\nsamples = 14\nvalue = [1, 13]\nclass = yes", fillcolor="#48a5e7"] ;
15 -> 31 ;
32 [label="gini = 0.0\nsamples = 10\nvalue = [0, 10]\nclass = yes", fillcolor="#399de5"] ;
31 -> 32 ;
33 [label="idade_do_modelo <= 12.5\ngini = 0.375\nsamples = 4\nvalue = [1, 3]\nclass = yes", fillcolor="#7bbeee"] ;
31 -> 33 ;
34 [label="gini = 0.0\nsamples = 3\nvalue = [0, 3]\nclass = yes", fillcolor="#399de5"] ;
33 -> 34 ;
35 [label="gini = 0.0\nsamples = 1\nvalue = [1, 0]\nclass = no", fillcolor="#e58139"] ;
33 -> 35 ;
36 [label="preco <= 40234.854\ngini = 0.472\nsamples = 21\nvalue = [8, 13]\nclass = yes", fillcolor="#b3d9f5"] ;
8 -> 36 ;
37 [label="gini = 0.0\nsamples = 2\nvalue = [2, 0]\nclass = no", fillcolor="#e58139"] ;
36 -> 37 ;
38 [label="idade_do_modelo <= 19.5\ngini = 0.432\nsamples = 19\nvalue = [6, 13]\nclass = yes", fillcolor="#94caf1"] ;
36 -> 38 ;
39 [label="preco <= 41315.1\ngini = 0.49\nsamples = 7\nvalue = [4, 3]\nclass = no", fillcolor="#f8e0ce"] ;
38 -> 39 ;
40 [label="preco <= 40936.439\ngini = 0.444\nsamples = 6\nvalue = [4, 2]\nclass = no", fillcolor="#f2c09c"] ;
39 -> 40 ;
41 [label="km_por_ano <= 22634.562\ngini = 0.444\nsamples = 3\nvalue = [1, 2]\nclass = yes", fillcolor="#9ccef2"] ;
40 -> 41 ;
42 [label="gini = 0.0\nsamples = 2\nvalue = [0, 2]\nclass = yes", fillcolor="#399de5"] ;
41 -> 42 ;
43 [label="gini = 0.0\nsamples = 1\nvalue = [1, 0]\nclass = no", fillcolor="#e58139"] ;
41 -> 43 ;
44 [label="gini = 0.0\nsamples = 3\nvalue = [3, 0]\nclass = no", fillcolor="#e58139"] ;
40 -> 44 ;
45 [label="gini = 0.0\nsamples = 1\nvalue = [0, 1]\nclass = yes", fillcolor="#399de5"] ;
39 -> 45 ;
46 [label="km_por_ano <= 12255.929\ngini = 0.278\nsamples = 12\nvalue = [2, 10]\nclass = yes", fillcolor="#61b1ea"] ;
38 -> 46 ;
47 [label="gini = 0.0\nsamples = 1\nvalue = [1, 0]\nclass = no", fillcolor="#e58139"] ;
46 -> 47 ;
48 [label="preco <= 40930.943\ngini = 0.165\nsamples = 11\nvalue = [1, 10]\nclass = yes", fillcolor="#4da7e8"] ;
46 -> 48 ;
49 [label="preco <= 40838.078\ngini = 0.32\nsamples = 5\nvalue = [1, 4]\nclass = yes", fillcolor="#6ab6ec"] ;
48 -> 49 ;
50 [label="gini = 0.0\nsamples = 4\nvalue = [0, 4]\nclass = yes", fillcolor="#399de5"] ;
49 -> 50 ;
51 [label="gini = 0.0\nsamples = 1\nvalue = [1, 0]\nclass = no", fillcolor="#e58139"] ;
49 -> 51 ;
52 [label="gini = 0.0\nsamples = 6\nvalue = [0, 6]\nclass = yes", fillcolor="#399de5"] ;
48 -> 52 ;
53 [label="km_por_ano <= 19514.052\ngini = 0.444\nsamples = 3\nvalue = [2, 1]\nclass = no", fillcolor="#f2c09c"] ;
7 -> 53 ;
54 [label="gini = 0.0\nsamples = 2\nvalue = [2, 0]\nclass = no", fillcolor="#e58139"] ;
53 -> 54 ;
55 [label="gini = 0.0\nsamples = 1\nvalue = [0, 1]\nclass = yes", fillcolor="#399de5"] ;
53 -> 55 ;
56 [label="idade_do_modelo <= 13.5\ngini = 0.49\nsamples = 28\nvalue = [12, 16]\nclass = yes", fillcolor="#cee6f8"] ;
6 -> 56 ;
57 [label="km_por_ano <= 40379.951\ngini = 0.346\nsamples = 9\nvalue = [7, 2]\nclass = no", fillcolor="#eca572"] ;
56 -> 57 ;
58 [label="idade_do_modelo <= 8.0\ngini = 0.219\nsamples = 8\nvalue = [7, 1]\nclass = no", fillcolor="#e99355"] ;
57 -> 58 ;
59 [label="gini = 0.0\nsamples = 1\nvalue = [0, 1]\nclass = yes", fillcolor="#399de5"] ;
58 -> 59 ;
60 [label="gini = 0.0\nsamples = 7\nvalue = [7, 0]\nclass = no", fillcolor="#e58139"] ;
58 -> 60 ;
61 [label="gini = 0.0\nsamples = 1\nvalue = [0, 1]\nclass = yes", fillcolor="#399de5"] ;
57 -> 61 ;
62 [label="idade_do_modelo <= 17.5\ngini = 0.388\nsamples = 19\nvalue = [5, 14]\nclass = yes", fillcolor="#80c0ee"] ;
56 -> 62 ;
63 [label="gini = 0.0\nsamples = 9\nvalue = [0, 9]\nclass = yes", fillcolor="#399de5"] ;
62 -> 63 ;
64 [label="km_por_ano <= 31906.775\ngini = 0.5\nsamples = 10\nvalue = [5, 5]\nclass = no", fillcolor="#ffffff"] ;
62 -> 64 ;
65 [label="gini = 0.0\nsamples = 3\nvalue = [0, 3]\nclass = yes", fillcolor="#399de5"] ;
64 -> 65 ;
66 [label="preco <= 40433.881\ngini = 0.408\nsamples = 7\nvalue = [5, 2]\nclass = no", fillcolor="#efb388"] ;
64 -> 66 ;
67 [label="preco <= 40288.035\ngini = 0.5\nsamples = 2\nvalue = [1, 1]\nclass = no", fillcolor="#ffffff"] ;
66 -> 67 ;
68 [label="gini = 0.0\nsamples = 1\nvalue = [1, 0]\nclass = no", fillcolor="#e58139"] ;
67 -> 68 ;
69 [label="gini = 0.0\nsamples = 1\nvalue = [0, 1]\nclass = yes", fillcolor="#399de5"] ;
67 -> 69 ;
70 [label="km_por_ano <= 39117.424\ngini = 0.32\nsamples = 5\nvalue = [4, 1]\nclass = no", fillcolor="#eca06a"] ;
66 -> 70 ;
71 [label="gini = 0.0\nsamples = 3\nvalue = [3, 0]\nclass = no", fillcolor="#e58139"] ;
70 -> 71 ;
72 [label="preco <= 40964.17\ngini = 0.5\nsamples = 2\nvalue = [1, 1]\nclass = no", fillcolor="#ffffff"] ;
70 -> 72 ;
73 [label="gini = 0.0\nsamples = 1\nvalue = [1, 0]\nclass = no", fillcolor="#e58139"] ;
72 -> 73 ;
74 [label="gini = 0.0\nsamples = 1\nvalue = [0, 1]\nclass = yes", fillcolor="#399de5"] ;
72 -> 74 ;
75 [label="preco <= 51789.92\ngini = 0.304\nsamples = 1533\nvalue = [286, 1247]\nclass = yes", fillcolor="#66b3eb"] ;
5 -> 75 ;
76 [label="km_por_ano <= 39158.461\ngini = 0.271\nsamples = 828\nvalue = [134, 694]\nclass = yes", fillcolor="#5fb0ea"] ;
75 -> 76 ;
77 [label="km_por_ano <= 38795.555\ngini = 0.279\nsamples = 792\nvalue = [133, 659]\nclass = yes", fillcolor="#61b1ea"] ;
76 -> 77 ;
78 [label="preco <= 50081.244\ngini = 0.275\nsamples = 789\nvalue = [130, 659]\nclass = yes", fillcolor="#60b0ea"] ;
77 -> 78 ;
79 [label="preco <= 47323.301\ngini = 0.293\nsamples = 651\nvalue = [116, 535]\nclass = yes", fillcolor="#64b2eb"] ;
78 -> 79 ;
80 [label="km_por_ano <= 8507.776\ngini = 0.259\nsamples = 451\nvalue = [69, 382]\nclass = yes", fillcolor="#5dafea"] ;
79 -> 80 ;
81 [label="gini = 0.0\nsamples = 2\nvalue = [2, 0]\nclass = no", fillcolor="#e58139"] ;
80 -> 81 ;
82 [label="preco <= 47012.846\ngini = 0.254\nsamples = 449\nvalue = [67, 382]\nclass = yes", fillcolor="#5caeea"] ;
80 -> 82 ;
83 [label="preco <= 46984.49\ngini = 0.263\nsamples = 430\nvalue = [67, 363]\nclass = yes", fillcolor="#5eafea"] ;
82 -> 83 ;
84 [label="km_por_ano <= 35329.84\ngini = 0.26\nsamples = 429\nvalue = [66, 363]\nclass = yes", fillcolor="#5dafea"] ;
83 -> 84 ;
85 [label="preco <= 44327.221\ngini = 0.252\nsamples = 413\nvalue = [61, 352]\nclass = yes", fillcolor="#5baeea"] ;
84 -> 85 ;
86 [label="preco <= 44081.135\ngini = 0.288\nsamples = 218\nvalue = [38, 180]\nclass = yes", fillcolor="#63b2ea"] ;
85 -> 86 ;
87 [label="idade_do_modelo <= 2.5\ngini = 0.262\nsamples = 200\nvalue = [31, 169]\nclass = yes", fillcolor="#5dafea"] ;
86 -> 87 ;
88 [label="km_por_ano <= 12507.791\ngini = 0.5\nsamples = 6\nvalue = [3, 3]\nclass = no", fillcolor="#ffffff"] ;
87 -> 88 ;
89 [label="gini = 0.0\nsamples = 1\nvalue = [0, 1]\nclass = yes", fillcolor="#399de5"] ;
88 -> 89 ;
90 [label="preco <= 42622.785\ngini = 0.48\nsamples = 5\nvalue = [3, 2]\nclass = no", fillcolor="#f6d5bd"] ;
88 -> 90 ;
91 [label="gini = 0.0\nsamples = 2\nvalue = [2, 0]\nclass = no", fillcolor="#e58139"] ;
90 -> 91 ;
92 [label="km_por_ano <= 19916.388\ngini = 0.444\nsamples = 3\nvalue = [1, 2]\nclass = yes", fillcolor="#9ccef2"] ;
90 -> 92 ;
93 [label="gini = 0.0\nsamples = 1\nvalue = [1, 0]\nclass = no", fillcolor="#e58139"] ;
92 -> 93 ;
94 [label="gini = 0.0\nsamples = 2\nvalue = [0, 2]\nclass = yes", fillcolor="#399de5"] ;
92 -> 94 ;
95 [label="km_por_ano <= 32916.637\ngini = 0.247\nsamples = 194\nvalue = [28, 166]\nclass = yes", fillcolor="#5aaee9"] ;
87 -> 95 ;
96 [label="km_por_ano <= 28549.692\ngini = 0.234\nsamples = 185\nvalue = [25, 160]\nclass = yes", fillcolor="#58ace9"] ;
95 -> 96 ;
97 [label="km_por_ano <= 28408.875\ngini = 0.262\nsamples = 155\nvalue = [24, 131]\nclass = yes", fillcolor="#5dafea"] ;
96 -> 97 ;
98 [label="km_por_ano <= 11068.236\ngini = 0.254\nsamples = 154\nvalue = [23, 131]\nclass = yes", fillcolor="#5caeea"] ;
97 -> 98 ;
99 [label="idade_do_modelo <= 14.5\ngini = 0.5\nsamples = 2\nvalue = [1, 1]\nclass = no", fillcolor="#ffffff"] ;
98 -> 99 ;
100 [label="gini = 0.0\nsamples = 1\nvalue = [1, 0]\nclass = no", fillcolor="#e58139"] ;
99 -> 100 ;
101 [label="gini = 0.0\nsamples = 1\nvalue = [0, 1]\nclass = yes", fillcolor="#399de5"] ;
99 -> 101 ;
102 [label="preco <= 43628.869\ngini = 0.248\nsamples = 152\nvalue = [22, 130]\nclass = yes", fillcolor="#5baee9"] ;
98 -> 102 ;
103 [label="preco <= 43507.59\ngini = 0.271\nsamples = 124\nvalue = [20, 104]\nclass = yes", fillcolor="#5fb0ea"] ;
102 -> 103 ;
104 [label="km_por_ano <= 20479.656\ngini = 0.245\nsamples = 119\nvalue = [17, 102]\nclass = yes", fillcolor="#5aade9"] ;
103 -> 104 ;
105 [label="km_por_ano <= 20366.197\ngini = 0.309\nsamples = 68\nvalue = [13, 55]\nclass = yes", fillcolor="#68b4eb"] ;
104 -> 105 ;
106 [label="preco <= 42608.4\ngini = 0.294\nsamples = 67\nvalue = [12, 55]\nclass = yes", fillcolor="#64b2eb"] ;
105 -> 106 ;
107 [label="preco <= 42504.709\ngini = 0.351\nsamples = 44\nvalue = [10, 34]\nclass = yes", fillcolor="#73baed"] ;
106 -> 107 ;
108 [label="preco <= 41707.32\ngini = 0.314\nsamples = 41\nvalue = [8, 33]\nclass = yes", fillcolor="#69b5eb"] ;
107 -> 108 ;
109 [label="gini = 0.0\nsamples = 8\nvalue = [0, 8]\nclass = yes", fillcolor="#399de5"] ;
108 -> 109 ;
110 [label="preco <= 41723.109\ngini = 0.367\nsamples = 33\nvalue = [8, 25]\nclass = yes", fillcolor="#78bced"] ;
108 -> 110 ;
111 [label="gini = 0.0\nsamples = 1\nvalue = [1, 0]\nclass = no", fillcolor="#e58139"] ;
110 -> 111 ;
112 [label="idade_do_modelo <= 18.5\ngini = 0.342\nsamples = 32\nvalue = [7, 25]\nclass = yes", fillcolor="#70b8ec"] ;
110 -> 112 ;
113 [label="idade_do_modelo <= 7.5\ngini = 0.384\nsamples = 27\nvalue = [7, 20]\nclass = yes", fillcolor="#7ebfee"] ;
112 -> 113 ;
114 [label="gini = 0.0\nsamples = 3\nvalue = [0, 3]\nclass = yes", fillcolor="#399de5"] ;
113 -> 114 ;
115 [label="idade_do_modelo <= 8.5\ngini = 0.413\nsamples = 24\nvalue = [7, 17]\nclass = yes", fillcolor="#8bc5f0"] ;
113 -> 115 ;
116 [label="gini = 0.0\nsamples = 1\nvalue = [1, 0]\nclass = no", fillcolor="#e58139"] ;
115 -> 116 ;
117 [label="preco <= 42253.865\ngini = 0.386\nsamples = 23\nvalue = [6, 17]\nclass = yes", fillcolor="#7fc0ee"] ;
115 -> 117 ;
118 [label="preco <= 42145.977\ngini = 0.444\nsamples = 18\nvalue = [6, 12]\nclass = yes", fillcolor="#9ccef2"] ;
117 -> 118 ;
119 [label="km_por_ano <= 13780.778\ngini = 0.355\nsamples = 13\nvalue = [3, 10]\nclass = yes", fillcolor="#74baed"] ;
118 -> 119 ;
120 [label="gini = 0.0\nsamples = 1\nvalue = [1, 0]\nclass = no", fillcolor="#e58139"] ;
119 -> 120 ;
121 [label="km_por_ano <= 17681.818\ngini = 0.278\nsamples = 12\nvalue = [2, 10]\nclass = yes", fillcolor="#61b1ea"] ;
119 -> 121 ;
122 [label="km_por_ano <= 16411.245\ngini = 0.444\nsamples = 6\nvalue = [2, 4]\nclass = yes", fillcolor="#9ccef2"] ;
121 -> 122 ;
123 [label="gini = 0.0\nsamples = 3\nvalue = [0, 3]\nclass = yes", fillcolor="#399de5"] ;
122 -> 123 ;
124 [label="preco <= 41994.852\ngini = 0.444\nsamples = 3\nvalue = [2, 1]\nclass = no", fillcolor="#f2c09c"] ;
122 -> 124 ;
125 [label="gini = 0.0\nsamples = 2\nvalue = [2, 0]\nclass = no", fillcolor="#e58139"] ;
124 -> 125 ;
126 [label="gini = 0.0\nsamples = 1\nvalue = [0, 1]\nclass = yes", fillcolor="#399de5"] ;
124 -> 126 ;
127 [label="gini = 0.0\nsamples = 6\nvalue = [0, 6]\nclass = yes", fillcolor="#399de5"] ;
121 -> 127 ;
128 [label="km_por_ano <= 13742.154\ngini = 0.48\nsamples = 5\nvalue = [3, 2]\nclass = no", fillcolor="#f6d5bd"] ;
118 -> 128 ;
129 [label="gini = 0.0\nsamples = 2\nvalue = [0, 2]\nclass = yes", fillcolor="#399de5"] ;
128 -> 129 ;
130 [label="gini = 0.0\nsamples = 3\nvalue = [3, 0]\nclass = no", fillcolor="#e58139"] ;
128 -> 130 ;
131 [label="gini = 0.0\nsamples = 5\nvalue = [0, 5]\nclass = yes", fillcolor="#399de5"] ;
117 -> 131 ;
132 [label="gini = 0.0\nsamples = 5\nvalue = [0, 5]\nclass = yes", fillcolor="#399de5"] ;
112 -> 132 ;
133 [label="idade_do_modelo <= 13.0\ngini = 0.444\nsamples = 3\nvalue = [2, 1]\nclass = no", fillcolor="#f2c09c"] ;
107 -> 133 ;
134 [label="gini = 0.0\nsamples = 1\nvalue = [0, 1]\nclass = yes", fillcolor="#399de5"] ;
133 -> 134 ;
135 [label="gini = 0.0\nsamples = 2\nvalue = [2, 0]\nclass = no", fillcolor="#e58139"] ;
133 -> 135 ;
136 [label="preco <= 43141.971\ngini = 0.159\nsamples = 23\nvalue = [2, 21]\nclass = yes", fillcolor="#4ca6e7"] ;
106 -> 136 ;
137 [label="gini = 0.0\nsamples = 14\nvalue = [0, 14]\nclass = yes", fillcolor="#399de5"] ;
136 -> 137 ;
138 [label="preco <= 43172.381\ngini = 0.346\nsamples = 9\nvalue = [2, 7]\nclass = yes", fillcolor="#72b9ec"] ;
136 -> 138 ;
139 [label="gini = 0.0\nsamples = 1\nvalue = [1, 0]\nclass = no", fillcolor="#e58139"] ;
138 -> 139 ;
140 [label="idade_do_modelo <= 14.5\ngini = 0.219\nsamples = 8\nvalue = [1, 7]\nclass = yes", fillcolor="#55abe9"] ;
138 -> 140 ;
141 [label="gini = 0.0\nsamples = 5\nvalue = [0, 5]\nclass = yes", fillcolor="#399de5"] ;
140 -> 141 ;
142 [label="idade_do_modelo <= 17.0\ngini = 0.444\nsamples = 3\nvalue = [1, 2]\nclass = yes", fillcolor="#9ccef2"] ;
140 -> 142 ;
143 [label="gini = 0.0\nsamples = 1\nvalue = [1, 0]\nclass = no", fillcolor="#e58139"] ;
142 -> 143 ;
144 [label="gini = 0.0\nsamples = 2\nvalue = [0, 2]\nclass = yes", fillcolor="#399de5"] ;
142 -> 144 ;
145 [label="gini = 0.0\nsamples = 1\nvalue = [1, 0]\nclass = no", fillcolor="#e58139"] ;
105 -> 145 ;
146 [label="preco <= 43308.465\ngini = 0.145\nsamples = 51\nvalue = [4, 47]\nclass = yes", fillcolor="#4aa5e7"] ;
104 -> 146 ;
147 [label="idade_do_modelo <= 5.5\ngini = 0.085\nsamples = 45\nvalue = [2, 43]\nclass = yes", fillcolor="#42a2e6"] ;
146 -> 147 ;
148 [label="preco <= 42965.779\ngini = 0.375\nsamples = 4\nvalue = [1, 3]\nclass = yes", fillcolor="#7bbeee"] ;
147 -> 148 ;
149 [label="gini = 0.0\nsamples = 3\nvalue = [0, 3]\nclass = yes", fillcolor="#399de5"] ;
148 -> 149 ;
150 [label="gini = 0.0\nsamples = 1\nvalue = [1, 0]\nclass = no", fillcolor="#e58139"] ;
148 -> 150 ;
151 [label="preco <= 41651.006\ngini = 0.048\nsamples = 41\nvalue = [1, 40]\nclass = yes", fillcolor="#3e9fe6"] ;
147 -> 151 ;
152 [label="preco <= 41619.195\ngini = 0.375\nsamples = 4\nvalue = [1, 3]\nclass = yes", fillcolor="#7bbeee"] ;
151 -> 152 ;
153 [label="gini = 0.0\nsamples = 3\nvalue = [0, 3]\nclass = yes", fillcolor="#399de5"] ;
152 -> 153 ;
154 [label="gini = 0.0\nsamples = 1\nvalue = [1, 0]\nclass = no", fillcolor="#e58139"] ;
152 -> 154 ;
155 [label="gini = 0.0\nsamples = 37\nvalue = [0, 37]\nclass = yes", fillcolor="#399de5"] ;
151 -> 155 ;
156 [label="km_por_ano <= 25766.338\ngini = 0.444\nsamples = 6\nvalue = [2, 4]\nclass = yes", fillcolor="#9ccef2"] ;
146 -> 156 ;
157 [label="gini = 0.0\nsamples = 4\nvalue = [0, 4]\nclass = yes", fillcolor="#399de5"] ;
156 -> 157 ;
158 [label="gini = 0.0\nsamples = 2\nvalue = [2, 0]\nclass = no", fillcolor="#e58139"] ;
156 -> 158 ;
159 [label="idade_do_modelo <= 15.0\ngini = 0.48\nsamples = 5\nvalue = [3, 2]\nclass = no", fillcolor="#f6d5bd"] ;
103 -> 159 ;
160 [label="gini = 0.0\nsamples = 2\nvalue = [2, 0]\nclass = no", fillcolor="#e58139"] ;
159 -> 160 ;
161 [label="preco <= 43509.48\ngini = 0.444\nsamples = 3\nvalue = [1, 2]\nclass = yes", fillcolor="#9ccef2"] ;
159 -> 161 ;
162 [label="gini = 0.0\nsamples = 1\nvalue = [1, 0]\nclass = no", fillcolor="#e58139"] ;
161 -> 162 ;
163 [label="gini = 0.0\nsamples = 2\nvalue = [0, 2]\nclass = yes", fillcolor="#399de5"] ;
161 -> 163 ;
164 [label="preco <= 43867.305\ngini = 0.133\nsamples = 28\nvalue = [2, 26]\nclass = yes", fillcolor="#48a5e7"] ;
102 -> 164 ;
165 [label="gini = 0.0\nsamples = 15\nvalue = [0, 15]\nclass = yes", fillcolor="#399de5"] ;
164 -> 165 ;
166 [label="preco <= 43870.164\ngini = 0.26\nsamples = 13\nvalue = [2, 11]\nclass = yes", fillcolor="#5dafea"] ;
164 -> 166 ;
167 [label="gini = 0.0\nsamples = 1\nvalue = [1, 0]\nclass = no", fillcolor="#e58139"] ;
166 -> 167 ;
168 [label="km_por_ano <= 23090.811\ngini = 0.153\nsamples = 12\nvalue = [1, 11]\nclass = yes", fillcolor="#4ba6e7"] ;
166 -> 168 ;
169 [label="gini = 0.0\nsamples = 8\nvalue = [0, 8]\nclass = yes", fillcolor="#399de5"] ;
168 -> 169 ;
170 [label="km_por_ano <= 26175.915\ngini = 0.375\nsamples = 4\nvalue = [1, 3]\nclass = yes", fillcolor="#7bbeee"] ;
168 -> 170 ;
171 [label="gini = 0.0\nsamples = 1\nvalue = [1, 0]\nclass = no", fillcolor="#e58139"] ;
170 -> 171 ;
172 [label="gini = 0.0\nsamples = 3\nvalue = [0, 3]\nclass = yes", fillcolor="#399de5"] ;
170 -> 172 ;
173 [label="gini = 0.0\nsamples = 1\nvalue = [1, 0]\nclass = no", fillcolor="#e58139"] ;
97 -> 173 ;
174 [label="preco <= 43583.621\ngini = 0.064\nsamples = 30\nvalue = [1, 29]\nclass = yes", fillcolor="#40a0e6"] ;
96 -> 174 ;
175 [label="gini = 0.0\nsamples = 25\nvalue = [0, 25]\nclass = yes", fillcolor="#399de5"] ;
174 -> 175 ;
176 [label="preco <= 43759.355\ngini = 0.32\nsamples = 5\nvalue = [1, 4]\nclass = yes", fillcolor="#6ab6ec"] ;
174 -> 176 ;
177 [label="gini = 0.0\nsamples = 1\nvalue = [1, 0]\nclass = no", fillcolor="#e58139"] ;
176 -> 177 ;
178 [label="gini = 0.0\nsamples = 4\nvalue = [0, 4]\nclass = yes", fillcolor="#399de5"] ;
176 -> 178 ;
179 [label="km_por_ano <= 33313.338\ngini = 0.444\nsamples = 9\nvalue = [3, 6]\nclass = yes", fillcolor="#9ccef2"] ;
95 -> 179 ;
180 [label="idade_do_modelo <= 18.5\ngini = 0.375\nsamples = 4\nvalue = [3, 1]\nclass = no", fillcolor="#eeab7b"] ;
179 -> 180 ;
181 [label="gini = 0.0\nsamples = 3\nvalue = [3, 0]\nclass = no", fillcolor="#e58139"] ;
180 -> 181 ;
182 [label="gini = 0.0\nsamples = 1\nvalue = [0, 1]\nclass = yes", fillcolor="#399de5"] ;
180 -> 182 ;
183 [label="gini = 0.0\nsamples = 5\nvalue = [0, 5]\nclass = yes", fillcolor="#399de5"] ;
179 -> 183 ;
184 [label="preco <= 44130.955\ngini = 0.475\nsamples = 18\nvalue = [7, 11]\nclass = yes", fillcolor="#b7dbf6"] ;
86 -> 184 ;
185 [label="gini = 0.0\nsamples = 3\nvalue = [3, 0]\nclass = no", fillcolor="#e58139"] ;
184 -> 185 ;
186 [label="idade_do_modelo <= 13.5\ngini = 0.391\nsamples = 15\nvalue = [4, 11]\nclass = yes", fillcolor="#81c1ee"] ;
184 -> 186 ;
187 [label="gini = 0.0\nsamples = 6\nvalue = [0, 6]\nclass = yes", fillcolor="#399de5"] ;
186 -> 187 ;
188 [label="preco <= 44185.4\ngini = 0.494\nsamples = 9\nvalue = [4, 5]\nclass = yes", fillcolor="#d7ebfa"] ;
186 -> 188 ;
189 [label="gini = 0.0\nsamples = 3\nvalue = [0, 3]\nclass = yes", fillcolor="#399de5"] ;
188 -> 189 ;
190 [label="km_por_ano <= 16251.116\ngini = 0.444\nsamples = 6\nvalue = [4, 2]\nclass = no", fillcolor="#f2c09c"] ;
188 -> 190 ;
191 [label="gini = 0.0\nsamples = 1\nvalue = [0, 1]\nclass = yes", fillcolor="#399de5"] ;
190 -> 191 ;
192 [label="km_por_ano <= 25284.341\ngini = 0.32\nsamples = 5\nvalue = [4, 1]\nclass = no", fillcolor="#eca06a"] ;
190 -> 192 ;
193 [label="gini = 0.0\nsamples = 4\nvalue = [4, 0]\nclass = no", fillcolor="#e58139"] ;
192 -> 193 ;
194 [label="gini = 0.0\nsamples = 1\nvalue = [0, 1]\nclass = yes", fillcolor="#399de5"] ;
192 -> 194 ;
195 [label="km_por_ano <= 31960.688\ngini = 0.208\nsamples = 195\nvalue = [23, 172]\nclass = yes", fillcolor="#53aae8"] ;
85 -> 195 ;
196 [label="km_por_ano <= 31852.058\ngini = 0.22\nsamples = 183\nvalue = [23, 160]\nclass = yes", fillcolor="#55abe9"] ;
195 -> 196 ;
197 [label="idade_do_modelo <= 19.5\ngini = 0.205\nsamples = 181\nvalue = [21, 160]\nclass = yes", fillcolor="#53aae8"] ;
196 -> 197 ;
198 [label="idade_do_modelo <= 18.5\ngini = 0.188\nsamples = 162\nvalue = [17, 145]\nclass = yes", fillcolor="#50a8e8"] ;
197 -> 198 ;
199 [label="km_por_ano <= 23893.066\ngini = 0.203\nsamples = 148\nvalue = [17, 131]\nclass = yes", fillcolor="#53aae8"] ;
198 -> 199 ;
200 [label="km_por_ano <= 23052.186\ngini = 0.237\nsamples = 102\nvalue = [14, 88]\nclass = yes", fillcolor="#58ade9"] ;
199 -> 200 ;
201 [label="idade_do_modelo <= 14.5\ngini = 0.203\nsamples = 96\nvalue = [11, 85]\nclass = yes", fillcolor="#53aae8"] ;
200 -> 201 ;
202 [label="preco <= 46872.189\ngini = 0.245\nsamples = 70\nvalue = [10, 60]\nclass = yes", fillcolor="#5aade9"] ;
201 -> 202 ;
203 [label="preco <= 45938.615\ngini = 0.227\nsamples = 69\nvalue = [9, 60]\nclass = yes", fillcolor="#57ace9"] ;
202 -> 203 ;
204 [label="preco <= 45918.926\ngini = 0.298\nsamples = 44\nvalue = [8, 36]\nclass = yes", fillcolor="#65b3eb"] ;
203 -> 204 ;
205 [label="km_por_ano <= 15142.28\ngini = 0.273\nsamples = 43\nvalue = [7, 36]\nclass = yes", fillcolor="#5fb0ea"] ;
204 -> 205 ;
206 [label="preco <= 44962.766\ngini = 0.408\nsamples = 14\nvalue = [4, 10]\nclass = yes", fillcolor="#88c4ef"] ;
205 -> 206 ;
207 [label="gini = 0.0\nsamples = 6\nvalue = [0, 6]\nclass = yes", fillcolor="#399de5"] ;
206 -> 207 ;
208 [label="preco <= 45056.365\ngini = 0.5\nsamples = 8\nvalue = [4, 4]\nclass = no", fillcolor="#ffffff"] ;
206 -> 208 ;
209 [label="gini = 0.0\nsamples = 2\nvalue = [2, 0]\nclass = no", fillcolor="#e58139"] ;
208 -> 209 ;
210 [label="preco <= 45506.119\ngini = 0.444\nsamples = 6\nvalue = [2, 4]\nclass = yes", fillcolor="#9ccef2"] ;
208 -> 210 ;
211 [label="gini = 0.0\nsamples = 2\nvalue = [0, 2]\nclass = yes", fillcolor="#399de5"] ;
210 -> 211 ;
212 [label="idade_do_modelo <= 10.0\ngini = 0.5\nsamples = 4\nvalue = [2, 2]\nclass = no", fillcolor="#ffffff"] ;
210 -> 212 ;
213 [label="km_por_ano <= 13575.587\ngini = 0.444\nsamples = 3\nvalue = [1, 2]\nclass = yes", fillcolor="#9ccef2"] ;
212 -> 213 ;
214 [label="gini = 0.0\nsamples = 2\nvalue = [0, 2]\nclass = yes", fillcolor="#399de5"] ;
213 -> 214 ;
215 [label="gini = 0.0\nsamples = 1\nvalue = [1, 0]\nclass = no", fillcolor="#e58139"] ;
213 -> 215 ;
216 [label="gini = 0.0\nsamples = 1\nvalue = [1, 0]\nclass = no", fillcolor="#e58139"] ;
212 -> 216 ;
217 [label="preco <= 44426.514\ngini = 0.185\nsamples = 29\nvalue = [3, 26]\nclass = yes", fillcolor="#50a8e8"] ;
205 -> 217 ;
218 [label="preco <= 44403.15\ngini = 0.5\nsamples = 2\nvalue = [1, 1]\nclass = no", fillcolor="#ffffff"] ;
217 -> 218 ;
219 [label="gini = 0.0\nsamples = 1\nvalue = [0, 1]\nclass = yes", fillcolor="#399de5"] ;
218 -> 219 ;
220 [label="gini = 0.0\nsamples = 1\nvalue = [1, 0]\nclass = no", fillcolor="#e58139"] ;
218 -> 220 ;
221 [label="km_por_ano <= 18537.184\ngini = 0.137\nsamples = 27\nvalue = [2, 25]\nclass = yes", fillcolor="#49a5e7"] ;
217 -> 221 ;
222 [label="gini = 0.0\nsamples = 14\nvalue = [0, 14]\nclass = yes", fillcolor="#399de5"] ;
221 -> 222 ;
223 [label="idade_do_modelo <= 9.5\ngini = 0.26\nsamples = 13\nvalue = [2, 11]\nclass = yes", fillcolor="#5dafea"] ;
221 -> 223 ;
224 [label="gini = 0.0\nsamples = 1\nvalue = [1, 0]\nclass = no", fillcolor="#e58139"] ;
223 -> 224 ;
225 [label="km_por_ano <= 19567.966\ngini = 0.153\nsamples = 12\nvalue = [1, 11]\nclass = yes", fillcolor="#4ba6e7"] ;
223 -> 225 ;
226 [label="km_por_ano <= 19427.953\ngini = 0.375\nsamples = 4\nvalue = [1, 3]\nclass = yes", fillcolor="#7bbeee"] ;
225 -> 226 ;
227 [label="gini = 0.0\nsamples = 3\nvalue = [0, 3]\nclass = yes", fillcolor="#399de5"] ;
226 -> 227 ;
228 [label="gini = 0.0\nsamples = 1\nvalue = [1, 0]\nclass = no", fillcolor="#e58139"] ;
226 -> 228 ;
229 [label="gini = 0.0\nsamples = 8\nvalue = [0, 8]\nclass = yes", fillcolor="#399de5"] ;
225 -> 229 ;
230 [label="gini = 0.0\nsamples = 1\nvalue = [1, 0]\nclass = no", fillcolor="#e58139"] ;
204 -> 230 ;
231 [label="km_por_ano <= 21297.2\ngini = 0.077\nsamples = 25\nvalue = [1, 24]\nclass = yes", fillcolor="#41a1e6"] ;
203 -> 231 ;
232 [label="gini = 0.0\nsamples = 24\nvalue = [0, 24]\nclass = yes", fillcolor="#399de5"] ;
231 -> 232 ;
233 [label="gini = 0.0\nsamples = 1\nvalue = [1, 0]\nclass = no", fillcolor="#e58139"] ;
231 -> 233 ;
234 [label="gini = 0.0\nsamples = 1\nvalue = [1, 0]\nclass = no", fillcolor="#e58139"] ;
202 -> 234 ;
235 [label="km_por_ano <= 16625.287\ngini = 0.074\nsamples = 26\nvalue = [1, 25]\nclass = yes", fillcolor="#41a1e6"] ;
201 -> 235 ;
236 [label="km_por_ano <= 16378.253\ngini = 0.165\nsamples = 11\nvalue = [1, 10]\nclass = yes", fillcolor="#4da7e8"] ;
235 -> 236 ;
237 [label="gini = 0.0\nsamples = 10\nvalue = [0, 10]\nclass = yes", fillcolor="#399de5"] ;
236 -> 237 ;
238 [label="gini = 0.0\nsamples = 1\nvalue = [1, 0]\nclass = no", fillcolor="#e58139"] ;
236 -> 238 ;
239 [label="gini = 0.0\nsamples = 15\nvalue = [0, 15]\nclass = yes", fillcolor="#399de5"] ;
235 -> 239 ;
240 [label="preco <= 45684.586\ngini = 0.5\nsamples = 6\nvalue = [3, 3]\nclass = no", fillcolor="#ffffff"] ;
200 -> 240 ;
241 [label="preco <= 44869.346\ngini = 0.375\nsamples = 4\nvalue = [1, 3]\nclass = yes", fillcolor="#7bbeee"] ;
240 -> 241 ;
242 [label="gini = 0.0\nsamples = 1\nvalue = [1, 0]\nclass = no", fillcolor="#e58139"] ;
241 -> 242 ;
243 [label="gini = 0.0\nsamples = 3\nvalue = [0, 3]\nclass = yes", fillcolor="#399de5"] ;
241 -> 243 ;
244 [label="gini = 0.0\nsamples = 2\nvalue = [2, 0]\nclass = no", fillcolor="#e58139"] ;
240 -> 244 ;
245 [label="km_por_ano <= 26409.27\ngini = 0.122\nsamples = 46\nvalue = [3, 43]\nclass = yes", fillcolor="#47a4e7"] ;
199 -> 245 ;
246 [label="gini = 0.0\nsamples = 22\nvalue = [0, 22]\nclass = yes", fillcolor="#399de5"] ;
245 -> 246 ;
247 [label="km_por_ano <= 26782.636\ngini = 0.219\nsamples = 24\nvalue = [3, 21]\nclass = yes", fillcolor="#55abe9"] ;
245 -> 247 ;
248 [label="gini = 0.0\nsamples = 1\nvalue = [1, 0]\nclass = no", fillcolor="#e58139"] ;
247 -> 248 ;
249 [label="preco <= 45896.459\ngini = 0.159\nsamples = 23\nvalue = [2, 21]\nclass = yes", fillcolor="#4ca6e7"] ;
247 -> 249 ;
250 [label="gini = 0.0\nsamples = 13\nvalue = [0, 13]\nclass = yes", fillcolor="#399de5"] ;
249 -> 250 ;
251 [label="preco <= 45915.189\ngini = 0.32\nsamples = 10\nvalue = [2, 8]\nclass = yes", fillcolor="#6ab6ec"] ;
249 -> 251 ;
252 [label="gini = 0.0\nsamples = 1\nvalue = [1, 0]\nclass = no", fillcolor="#e58139"] ;
251 -> 252 ;
253 [label="preco <= 46452.975\ngini = 0.198\nsamples = 9\nvalue = [1, 8]\nclass = yes", fillcolor="#52a9e8"] ;
251 -> 253 ;
254 [label="gini = 0.0\nsamples = 5\nvalue = [0, 5]\nclass = yes", fillcolor="#399de5"] ;
253 -> 254 ;
255 [label="preco <= 46609.484\ngini = 0.375\nsamples = 4\nvalue = [1, 3]\nclass = yes", fillcolor="#7bbeee"] ;
253 -> 255 ;
256 [label="gini = 0.0\nsamples = 1\nvalue = [1, 0]\nclass = no", fillcolor="#e58139"] ;
255 -> 256 ;
257 [label="gini = 0.0\nsamples = 3\nvalue = [0, 3]\nclass = yes", fillcolor="#399de5"] ;
255 -> 257 ;
258 [label="gini = 0.0\nsamples = 14\nvalue = [0, 14]\nclass = yes", fillcolor="#399de5"] ;
198 -> 258 ;
259 [label="preco <= 44784.51\ngini = 0.332\nsamples = 19\nvalue = [4, 15]\nclass = yes", fillcolor="#6eb7ec"] ;
197 -> 259 ;
260 [label="km_por_ano <= 26744.013\ngini = 0.444\nsamples = 3\nvalue = [2, 1]\nclass = no", fillcolor="#f2c09c"] ;
259 -> 260 ;
261 [label="gini = 0.0\nsamples = 1\nvalue = [1, 0]\nclass = no", fillcolor="#e58139"] ;
260 -> 261 ;
262 [label="preco <= 44680.055\ngini = 0.5\nsamples = 2\nvalue = [1, 1]\nclass = no", fillcolor="#ffffff"] ;
260 -> 262 ;
263 [label="gini = 0.0\nsamples = 1\nvalue = [0, 1]\nclass = yes", fillcolor="#399de5"] ;
262 -> 263 ;
264 [label="gini = 0.0\nsamples = 1\nvalue = [1, 0]\nclass = no", fillcolor="#e58139"] ;
262 -> 264 ;
265 [label="preco <= 46416.971\ngini = 0.219\nsamples = 16\nvalue = [2, 14]\nclass = yes", fillcolor="#55abe9"] ;
259 -> 265 ;
266 [label="preco <= 46255.32\ngini = 0.124\nsamples = 15\nvalue = [1, 14]\nclass = yes", fillcolor="#47a4e7"] ;
265 -> 266 ;
267 [label="gini = 0.0\nsamples = 11\nvalue = [0, 11]\nclass = yes", fillcolor="#399de5"] ;
266 -> 267 ;
268 [label="preco <= 46320.977\ngini = 0.375\nsamples = 4\nvalue = [1, 3]\nclass = yes", fillcolor="#7bbeee"] ;
266 -> 268 ;
269 [label="gini = 0.0\nsamples = 1\nvalue = [1, 0]\nclass = no", fillcolor="#e58139"] ;
268 -> 269 ;
270 [label="gini = 0.0\nsamples = 3\nvalue = [0, 3]\nclass = yes", fillcolor="#399de5"] ;
268 -> 270 ;
271 [label="gini = 0.0\nsamples = 1\nvalue = [1, 0]\nclass = no", fillcolor="#e58139"] ;
265 -> 271 ;
272 [label="gini = 0.0\nsamples = 2\nvalue = [2, 0]\nclass = no", fillcolor="#e58139"] ;
196 -> 272 ;
273 [label="gini = 0.0\nsamples = 12\nvalue = [0, 12]\nclass = yes", fillcolor="#399de5"] ;
195 -> 273 ;
274 [label="preco <= 45807.461\ngini = 0.43\nsamples = 16\nvalue = [5, 11]\nclass = yes", fillcolor="#93caf1"] ;
84 -> 274 ;
275 [label="preco <= 42299.736\ngini = 0.165\nsamples = 11\nvalue = [1, 10]\nclass = yes", fillcolor="#4da7e8"] ;
274 -> 275 ;
276 [label="km_por_ano <= 36615.703\ngini = 0.5\nsamples = 2\nvalue = [1, 1]\nclass = no", fillcolor="#ffffff"] ;
275 -> 276 ;
277 [label="gini = 0.0\nsamples = 1\nvalue = [0, 1]\nclass = yes", fillcolor="#399de5"] ;
276 -> 277 ;
278 [label="gini = 0.0\nsamples = 1\nvalue = [1, 0]\nclass = no", fillcolor="#e58139"] ;
276 -> 278 ;
279 [label="gini = 0.0\nsamples = 9\nvalue = [0, 9]\nclass = yes", fillcolor="#399de5"] ;
275 -> 279 ;
280 [label="preco <= 46614.93\ngini = 0.32\nsamples = 5\nvalue = [4, 1]\nclass = no", fillcolor="#eca06a"] ;
274 -> 280 ;
281 [label="gini = 0.0\nsamples = 4\nvalue = [4, 0]\nclass = no", fillcolor="#e58139"] ;
280 -> 281 ;
282 [label="gini = 0.0\nsamples = 1\nvalue = [0, 1]\nclass = yes", fillcolor="#399de5"] ;
280 -> 282 ;
283 [label="gini = 0.0\nsamples = 1\nvalue = [1, 0]\nclass = no", fillcolor="#e58139"] ;
83 -> 283 ;
284 [label="gini = 0.0\nsamples = 19\nvalue = [0, 19]\nclass = yes", fillcolor="#399de5"] ;
82 -> 284 ;
285 [label="idade_do_modelo <= 8.5\ngini = 0.36\nsamples = 200\nvalue = [47, 153]\nclass = yes", fillcolor="#76bbed"] ;
79 -> 285 ;
286 [label="km_por_ano <= 30513.892\ngini = 0.496\nsamples = 22\nvalue = [10, 12]\nclass = yes", fillcolor="#deeffb"] ;
285 -> 286 ;
287 [label="km_por_ano <= 14136.443\ngini = 0.444\nsamples = 18\nvalue = [6, 12]\nclass = yes", fillcolor="#9ccef2"] ;
286 -> 287 ;
288 [label="km_por_ano <= 11172.843\ngini = 0.375\nsamples = 4\nvalue = [3, 1]\nclass = no", fillcolor="#eeab7b"] ;
287 -> 288 ;
289 [label="gini = 0.0\nsamples = 1\nvalue = [0, 1]\nclass = yes", fillcolor="#399de5"] ;
288 -> 289 ;
290 [label="gini = 0.0\nsamples = 3\nvalue = [3, 0]\nclass = no", fillcolor="#e58139"] ;
288 -> 290 ;
291 [label="preco <= 48657.92\ngini = 0.337\nsamples = 14\nvalue = [3, 11]\nclass = yes", fillcolor="#6fb8ec"] ;
287 -> 291 ;
292 [label="km_por_ano <= 17842.753\ngini = 0.5\nsamples = 6\nvalue = [3, 3]\nclass = no", fillcolor="#ffffff"] ;
291 -> 292 ;
293 [label="gini = 0.0\nsamples = 2\nvalue = [0, 2]\nclass = yes", fillcolor="#399de5"] ;
292 -> 293 ;
294 [label="idade_do_modelo <= 6.5\ngini = 0.375\nsamples = 4\nvalue = [3, 1]\nclass = no", fillcolor="#eeab7b"] ;
292 -> 294 ;
295 [label="gini = 0.0\nsamples = 3\nvalue = [3, 0]\nclass = no", fillcolor="#e58139"] ;
294 -> 295 ;
296 [label="gini = 0.0\nsamples = 1\nvalue = [0, 1]\nclass = yes", fillcolor="#399de5"] ;
294 -> 296 ;
297 [label="gini = 0.0\nsamples = 8\nvalue = [0, 8]\nclass = yes", fillcolor="#399de5"] ;
291 -> 297 ;
298 [label="gini = 0.0\nsamples = 4\nvalue = [4, 0]\nclass = no", fillcolor="#e58139"] ;
286 -> 298 ;
299 [label="preco <= 47341.227\ngini = 0.329\nsamples = 178\nvalue = [37, 141]\nclass = yes", fillcolor="#6db7ec"] ;
285 -> 299 ;
300 [label="gini = 0.0\nsamples = 1\nvalue = [1, 0]\nclass = no", fillcolor="#e58139"] ;
299 -> 300 ;
301 [label="preco <= 50077.02\ngini = 0.324\nsamples = 177\nvalue = [36, 141]\nclass = yes", fillcolor="#6cb6ec"] ;
299 -> 301 ;
302 [label="idade_do_modelo <= 11.5\ngini = 0.319\nsamples = 176\nvalue = [35, 141]\nclass = yes", fillcolor="#6ab5eb"] ;
301 -> 302 ;
303 [label="km_por_ano <= 18016.562\ngini = 0.157\nsamples = 35\nvalue = [3, 32]\nclass = yes", fillcolor="#4ca6e7"] ;
302 -> 303 ;
304 [label="km_por_ano <= 14002.867\ngini = 0.444\nsamples = 9\nvalue = [3, 6]\nclass = yes", fillcolor="#9ccef2"] ;
303 -> 304 ;
305 [label="gini = 0.0\nsamples = 4\nvalue = [0, 4]\nclass = yes", fillcolor="#399de5"] ;
304 -> 305 ;
306 [label="km_por_ano <= 14539.583\ngini = 0.48\nsamples = 5\nvalue = [3, 2]\nclass = no", fillcolor="#f6d5bd"] ;
304 -> 306 ;
307 [label="gini = 0.0\nsamples = 2\nvalue = [2, 0]\nclass = no", fillcolor="#e58139"] ;
306 -> 307 ;
308 [label="preco <= 48484.58\ngini = 0.444\nsamples = 3\nvalue = [1, 2]\nclass = yes", fillcolor="#9ccef2"] ;
306 -> 308 ;
309 [label="gini = 0.0\nsamples = 1\nvalue = [1, 0]\nclass = no", fillcolor="#e58139"] ;
308 -> 309 ;
310 [label="gini = 0.0\nsamples = 2\nvalue = [0, 2]\nclass = yes", fillcolor="#399de5"] ;
308 -> 310 ;
311 [label="gini = 0.0\nsamples = 26\nvalue = [0, 26]\nclass = yes", fillcolor="#399de5"] ;
303 -> 311 ;
312 [label="km_por_ano <= 21133.853\ngini = 0.351\nsamples = 141\nvalue = [32, 109]\nclass = yes", fillcolor="#73baed"] ;
302 -> 312 ;
313 [label="km_por_ano <= 15501.968\ngini = 0.26\nsamples = 78\nvalue = [12, 66]\nclass = yes", fillcolor="#5dafea"] ;
312 -> 313 ;
314 [label="km_por_ano <= 15486.679\ngini = 0.393\nsamples = 26\nvalue = [7, 19]\nclass = yes", fillcolor="#82c1ef"] ;
313 -> 314 ;
315 [label="preco <= 50030.826\ngini = 0.365\nsamples = 25\nvalue = [6, 19]\nclass = yes", fillcolor="#78bced"] ;
314 -> 315 ;
316 [label="idade_do_modelo <= 19.5\ngini = 0.33\nsamples = 24\nvalue = [5, 19]\nclass = yes", fillcolor="#6db7ec"] ;
315 -> 316 ;
317 [label="km_por_ano <= 13398.56\ngini = 0.255\nsamples = 20\nvalue = [3, 17]\nclass = yes", fillcolor="#5caeea"] ;
316 -> 317 ;
318 [label="km_por_ano <= 9932.042\ngini = 0.124\nsamples = 15\nvalue = [1, 14]\nclass = yes", fillcolor="#47a4e7"] ;
317 -> 318 ;
319 [label="km_por_ano <= 8885.971\ngini = 0.444\nsamples = 3\nvalue = [1, 2]\nclass = yes", fillcolor="#9ccef2"] ;
318 -> 319 ;
320 [label="gini = 0.0\nsamples = 2\nvalue = [0, 2]\nclass = yes", fillcolor="#399de5"] ;
319 -> 320 ;
321 [label="gini = 0.0\nsamples = 1\nvalue = [1, 0]\nclass = no", fillcolor="#e58139"] ;
319 -> 321 ;
322 [label="gini = 0.0\nsamples = 12\nvalue = [0, 12]\nclass = yes", fillcolor="#399de5"] ;
318 -> 322 ;
323 [label="preco <= 48291.73\ngini = 0.48\nsamples = 5\nvalue = [2, 3]\nclass = yes", fillcolor="#bddef6"] ;
317 -> 323 ;
324 [label="gini = 0.0\nsamples = 2\nvalue = [0, 2]\nclass = yes", fillcolor="#399de5"] ;
323 -> 324 ;
325 [label="km_por_ano <= 15161.592\ngini = 0.444\nsamples = 3\nvalue = [2, 1]\nclass = no", fillcolor="#f2c09c"] ;
323 -> 325 ;
326 [label="gini = 0.0\nsamples = 2\nvalue = [2, 0]\nclass = no", fillcolor="#e58139"] ;
325 -> 326 ;
327 [label="gini = 0.0\nsamples = 1\nvalue = [0, 1]\nclass = yes", fillcolor="#399de5"] ;
325 -> 327 ;
328 [label="preco <= 48697.17\ngini = 0.5\nsamples = 4\nvalue = [2, 2]\nclass = no", fillcolor="#ffffff"] ;
316 -> 328 ;
329 [label="gini = 0.0\nsamples = 2\nvalue = [2, 0]\nclass = no", fillcolor="#e58139"] ;
328 -> 329 ;
330 [label="gini = 0.0\nsamples = 2\nvalue = [0, 2]\nclass = yes", fillcolor="#399de5"] ;
328 -> 330 ;
331 [label="gini = 0.0\nsamples = 1\nvalue = [1, 0]\nclass = no", fillcolor="#e58139"] ;
315 -> 331 ;
332 [label="gini = 0.0\nsamples = 1\nvalue = [1, 0]\nclass = no", fillcolor="#e58139"] ;
314 -> 332 ;
333 [label="km_por_ano <= 19043.319\ngini = 0.174\nsamples = 52\nvalue = [5, 47]\nclass = yes", fillcolor="#4ea7e8"] ;
313 -> 333 ;
334 [label="preco <= 49366.65\ngini = 0.062\nsamples = 31\nvalue = [1, 30]\nclass = yes", fillcolor="#40a0e6"] ;
333 -> 334 ;
335 [label="gini = 0.0\nsamples = 25\nvalue = [0, 25]\nclass = yes", fillcolor="#399de5"] ;
334 -> 335 ;
336 [label="preco <= 49432.135\ngini = 0.278\nsamples = 6\nvalue = [1, 5]\nclass = yes", fillcolor="#61b1ea"] ;
334 -> 336 ;
337 [label="gini = 0.0\nsamples = 1\nvalue = [1, 0]\nclass = no", fillcolor="#e58139"] ;
336 -> 337 ;
338 [label="gini = 0.0\nsamples = 5\nvalue = [0, 5]\nclass = yes", fillcolor="#399de5"] ;
336 -> 338 ;
339 [label="km_por_ano <= 19249.316\ngini = 0.308\nsamples = 21\nvalue = [4, 17]\nclass = yes", fillcolor="#68b4eb"] ;
333 -> 339 ;
340 [label="gini = 0.0\nsamples = 2\nvalue = [2, 0]\nclass = no", fillcolor="#e58139"] ;
339 -> 340 ;
341 [label="km_por_ano <= 19838.334\ngini = 0.188\nsamples = 19\nvalue = [2, 17]\nclass = yes", fillcolor="#50a9e8"] ;
339 -> 341 ;
342 [label="km_por_ano <= 19755.453\ngini = 0.375\nsamples = 8\nvalue = [2, 6]\nclass = yes", fillcolor="#7bbeee"] ;
341 -> 342 ;
343 [label="gini = 0.0\nsamples = 6\nvalue = [0, 6]\nclass = yes", fillcolor="#399de5"] ;
342 -> 343 ;
344 [label="gini = 0.0\nsamples = 2\nvalue = [2, 0]\nclass = no", fillcolor="#e58139"] ;
342 -> 344 ;
345 [label="gini = 0.0\nsamples = 11\nvalue = [0, 11]\nclass = yes", fillcolor="#399de5"] ;
341 -> 345 ;
346 [label="km_por_ano <= 21602.976\ngini = 0.433\nsamples = 63\nvalue = [20, 43]\nclass = yes", fillcolor="#95cbf1"] ;
312 -> 346 ;
347 [label="gini = 0.0\nsamples = 4\nvalue = [4, 0]\nclass = no", fillcolor="#e58139"] ;
346 -> 347 ;
348 [label="preco <= 47597.084\ngini = 0.395\nsamples = 59\nvalue = [16, 43]\nclass = yes", fillcolor="#83c1ef"] ;
346 -> 348 ;
349 [label="gini = 0.0\nsamples = 6\nvalue = [0, 6]\nclass = yes", fillcolor="#399de5"] ;
348 -> 349 ;
350 [label="km_por_ano <= 23249.33\ngini = 0.422\nsamples = 53\nvalue = [16, 37]\nclass = yes", fillcolor="#8fc7f0"] ;
348 -> 350 ;
351 [label="km_por_ano <= 21922.43\ngini = 0.444\nsamples = 6\nvalue = [4, 2]\nclass = no", fillcolor="#f2c09c"] ;
350 -> 351 ;
352 [label="gini = 0.0\nsamples = 2\nvalue = [0, 2]\nclass = yes", fillcolor="#399de5"] ;
351 -> 352 ;
353 [label="gini = 0.0\nsamples = 4\nvalue = [4, 0]\nclass = no", fillcolor="#e58139"] ;
351 -> 353 ;
354 [label="preco <= 47616.42\ngini = 0.38\nsamples = 47\nvalue = [12, 35]\nclass = yes", fillcolor="#7dbfee"] ;
350 -> 354 ;
355 [label="gini = 0.0\nsamples = 1\nvalue = [1, 0]\nclass = no", fillcolor="#e58139"] ;
354 -> 355 ;
356 [label="idade_do_modelo <= 14.5\ngini = 0.364\nsamples = 46\nvalue = [11, 35]\nclass = yes", fillcolor="#77bced"] ;
354 -> 356 ;
357 [label="preco <= 48075.93\ngini = 0.486\nsamples = 12\nvalue = [5, 7]\nclass = yes", fillcolor="#c6e3f8"] ;
356 -> 357 ;
358 [label="gini = 0.0\nsamples = 2\nvalue = [2, 0]\nclass = no", fillcolor="#e58139"] ;
357 -> 358 ;
359 [label="km_por_ano <= 28638.206\ngini = 0.42\nsamples = 10\nvalue = [3, 7]\nclass = yes", fillcolor="#8ec7f0"] ;
357 -> 359 ;
360 [label="preco <= 49516.58\ngini = 0.444\nsamples = 3\nvalue = [2, 1]\nclass = no", fillcolor="#f2c09c"] ;
359 -> 360 ;
361 [label="gini = 0.0\nsamples = 2\nvalue = [2, 0]\nclass = no", fillcolor="#e58139"] ;
360 -> 361 ;
362 [label="gini = 0.0\nsamples = 1\nvalue = [0, 1]\nclass = yes", fillcolor="#399de5"] ;
360 -> 362 ;
363 [label="idade_do_modelo <= 12.5\ngini = 0.245\nsamples = 7\nvalue = [1, 6]\nclass = yes", fillcolor="#5aade9"] ;
359 -> 363 ;
364 [label="preco <= 48697.041\ngini = 0.375\nsamples = 4\nvalue = [1, 3]\nclass = yes", fillcolor="#7bbeee"] ;
363 -> 364 ;
365 [label="gini = 0.0\nsamples = 2\nvalue = [0, 2]\nclass = yes", fillcolor="#399de5"] ;
364 -> 365 ;
366 [label="km_por_ano <= 29862.913\ngini = 0.5\nsamples = 2\nvalue = [1, 1]\nclass = no", fillcolor="#ffffff"] ;
364 -> 366 ;
367 [label="gini = 0.0\nsamples = 1\nvalue = [0, 1]\nclass = yes", fillcolor="#399de5"] ;
366 -> 367 ;
368 [label="gini = 0.0\nsamples = 1\nvalue = [1, 0]\nclass = no", fillcolor="#e58139"] ;
366 -> 368 ;
369 [label="gini = 0.0\nsamples = 3\nvalue = [0, 3]\nclass = yes", fillcolor="#399de5"] ;
363 -> 369 ;
370 [label="preco <= 48464.975\ngini = 0.291\nsamples = 34\nvalue = [6, 28]\nclass = yes", fillcolor="#63b2eb"] ;
356 -> 370 ;
371 [label="preco <= 48221.336\ngini = 0.415\nsamples = 17\nvalue = [5, 12]\nclass = yes", fillcolor="#8bc6f0"] ;
370 -> 371 ;
372 [label="idade_do_modelo <= 19.5\ngini = 0.153\nsamples = 12\nvalue = [1, 11]\nclass = yes", fillcolor="#4ba6e7"] ;
371 -> 372 ;
373 [label="gini = 0.0\nsamples = 10\nvalue = [0, 10]\nclass = yes", fillcolor="#399de5"] ;
372 -> 373 ;
374 [label="km_por_ano <= 30620.108\ngini = 0.5\nsamples = 2\nvalue = [1, 1]\nclass = no", fillcolor="#ffffff"] ;
372 -> 374 ;
375 [label="gini = 0.0\nsamples = 1\nvalue = [1, 0]\nclass = no", fillcolor="#e58139"] ;
374 -> 375 ;
376 [label="gini = 0.0\nsamples = 1\nvalue = [0, 1]\nclass = yes", fillcolor="#399de5"] ;
374 -> 376 ;
377 [label="preco <= 48383.436\ngini = 0.32\nsamples = 5\nvalue = [4, 1]\nclass = no", fillcolor="#eca06a"] ;
371 -> 377 ;
378 [label="gini = 0.0\nsamples = 3\nvalue = [3, 0]\nclass = no", fillcolor="#e58139"] ;
377 -> 378 ;
379 [label="km_por_ano <= 28717.062\ngini = 0.5\nsamples = 2\nvalue = [1, 1]\nclass = no", fillcolor="#ffffff"] ;
377 -> 379 ;
380 [label="gini = 0.0\nsamples = 1\nvalue = [0, 1]\nclass = yes", fillcolor="#399de5"] ;
379 -> 380 ;
381 [label="gini = 0.0\nsamples = 1\nvalue = [1, 0]\nclass = no", fillcolor="#e58139"] ;
379 -> 381 ;
382 [label="idade_do_modelo <= 15.5\ngini = 0.111\nsamples = 17\nvalue = [1, 16]\nclass = yes", fillcolor="#45a3e7"] ;
370 -> 382 ;
383 [label="km_por_ano <= 29778.423\ngini = 0.444\nsamples = 3\nvalue = [1, 2]\nclass = yes", fillcolor="#9ccef2"] ;
382 -> 383 ;
384 [label="gini = 0.0\nsamples = 1\nvalue = [0, 1]\nclass = yes", fillcolor="#399de5"] ;
383 -> 384 ;
385 [label="km_por_ano <= 33055.845\ngini = 0.5\nsamples = 2\nvalue = [1, 1]\nclass = no", fillcolor="#ffffff"] ;
383 -> 385 ;
386 [label="gini = 0.0\nsamples = 1\nvalue = [1, 0]\nclass = no", fillcolor="#e58139"] ;
385 -> 386 ;
387 [label="gini = 0.0\nsamples = 1\nvalue = [0, 1]\nclass = yes", fillcolor="#399de5"] ;
385 -> 387 ;
388 [label="gini = 0.0\nsamples = 14\nvalue = [0, 14]\nclass = yes", fillcolor="#399de5"] ;
382 -> 388 ;
389 [label="gini = 0.0\nsamples = 1\nvalue = [1, 0]\nclass = no", fillcolor="#e58139"] ;
301 -> 389 ;
390 [label="km_por_ano <= 27701.569\ngini = 0.182\nsamples = 138\nvalue = [14, 124]\nclass = yes", fillcolor="#4fa8e8"] ;
78 -> 390 ;
391 [label="km_por_ano <= 14554.871\ngini = 0.15\nsamples = 110\nvalue = [9, 101]\nclass = yes", fillcolor="#4ba6e7"] ;
390 -> 391 ;
392 [label="idade_do_modelo <= 17.5\ngini = 0.308\nsamples = 21\nvalue = [4, 17]\nclass = yes", fillcolor="#68b4eb"] ;
391 -> 392 ;
393 [label="km_por_ano <= 14271.627\ngini = 0.198\nsamples = 18\nvalue = [2, 16]\nclass = yes", fillcolor="#52a9e8"] ;
392 -> 393 ;
394 [label="gini = 0.0\nsamples = 15\nvalue = [0, 15]\nclass = yes", fillcolor="#399de5"] ;
393 -> 394 ;
395 [label="km_por_ano <= 14340.829\ngini = 0.444\nsamples = 3\nvalue = [2, 1]\nclass = no", fillcolor="#f2c09c"] ;
393 -> 395 ;
396 [label="gini = 0.0\nsamples = 1\nvalue = [1, 0]\nclass = no", fillcolor="#e58139"] ;
395 -> 396 ;
397 [label="km_por_ano <= 14451.873\ngini = 0.5\nsamples = 2\nvalue = [1, 1]\nclass = no", fillcolor="#ffffff"] ;
395 -> 397 ;
398 [label="gini = 0.0\nsamples = 1\nvalue = [0, 1]\nclass = yes", fillcolor="#399de5"] ;
397 -> 398 ;
399 [label="gini = 0.0\nsamples = 1\nvalue = [1, 0]\nclass = no", fillcolor="#e58139"] ;
397 -> 399 ;
400 [label="km_por_ano <= 14128.396\ngini = 0.444\nsamples = 3\nvalue = [2, 1]\nclass = no", fillcolor="#f2c09c"] ;
392 -> 400 ;
401 [label="gini = 0.0\nsamples = 2\nvalue = [2, 0]\nclass = no", fillcolor="#e58139"] ;
400 -> 401 ;
402 [label="gini = 0.0\nsamples = 1\nvalue = [0, 1]\nclass = yes", fillcolor="#399de5"] ;
400 -> 402 ;
403 [label="km_por_ano <= 20881.991\ngini = 0.106\nsamples = 89\nvalue = [5, 84]\nclass = yes", fillcolor="#45a3e7"] ;
391 -> 403 ;
404 [label="idade_do_modelo <= 7.5\ngini = 0.043\nsamples = 46\nvalue = [1, 45]\nclass = yes", fillcolor="#3d9fe6"] ;
403 -> 404 ;
405 [label="idade_do_modelo <= 6.5\ngini = 0.375\nsamples = 4\nvalue = [1, 3]\nclass = yes", fillcolor="#7bbeee"] ;
404 -> 405 ;
406 [label="gini = 0.0\nsamples = 3\nvalue = [0, 3]\nclass = yes", fillcolor="#399de5"] ;
405 -> 406 ;
407 [label="gini = 0.0\nsamples = 1\nvalue = [1, 0]\nclass = no", fillcolor="#e58139"] ;
405 -> 407 ;
408 [label="gini = 0.0\nsamples = 42\nvalue = [0, 42]\nclass = yes", fillcolor="#399de5"] ;
404 -> 408 ;
409 [label="km_por_ano <= 21001.888\ngini = 0.169\nsamples = 43\nvalue = [4, 39]\nclass = yes", fillcolor="#4da7e8"] ;
403 -> 409 ;
410 [label="gini = 0.0\nsamples = 1\nvalue = [1, 0]\nclass = no", fillcolor="#e58139"] ;
409 -> 410 ;
411 [label="preco <= 50989.471\ngini = 0.133\nsamples = 42\nvalue = [3, 39]\nclass = yes", fillcolor="#48a5e7"] ;
409 -> 411 ;
412 [label="preco <= 50796.25\ngini = 0.255\nsamples = 20\nvalue = [3, 17]\nclass = yes", fillcolor="#5caeea"] ;
411 -> 412 ;
413 [label="km_por_ano <= 21648.841\ngini = 0.111\nsamples = 17\nvalue = [1, 16]\nclass = yes", fillcolor="#45a3e7"] ;
412 -> 413 ;
414 [label="idade_do_modelo <= 10.5\ngini = 0.5\nsamples = 2\nvalue = [1, 1]\nclass = no", fillcolor="#ffffff"] ;
413 -> 414 ;
415 [label="gini = 0.0\nsamples = 1\nvalue = [0, 1]\nclass = yes", fillcolor="#399de5"] ;
414 -> 415 ;
416 [label="gini = 0.0\nsamples = 1\nvalue = [1, 0]\nclass = no", fillcolor="#e58139"] ;
414 -> 416 ;
417 [label="gini = 0.0\nsamples = 15\nvalue = [0, 15]\nclass = yes", fillcolor="#399de5"] ;
413 -> 417 ;
418 [label="km_por_ano <= 24856.257\ngini = 0.444\nsamples = 3\nvalue = [2, 1]\nclass = no", fillcolor="#f2c09c"] ;
412 -> 418 ;
419 [label="gini = 0.0\nsamples = 2\nvalue = [2, 0]\nclass = no", fillcolor="#e58139"] ;
418 -> 419 ;
420 [label="gini = 0.0\nsamples = 1\nvalue = [0, 1]\nclass = yes", fillcolor="#399de5"] ;
418 -> 420 ;
421 [label="gini = 0.0\nsamples = 22\nvalue = [0, 22]\nclass = yes", fillcolor="#399de5"] ;
411 -> 421 ;
422 [label="km_por_ano <= 29272.285\ngini = 0.293\nsamples = 28\nvalue = [5, 23]\nclass = yes", fillcolor="#64b2eb"] ;
390 -> 422 ;
423 [label="km_por_ano <= 28704.992\ngini = 0.5\nsamples = 8\nvalue = [4, 4]\nclass = no", fillcolor="#ffffff"] ;
422 -> 423 ;
424 [label="km_por_ano <= 27938.947\ngini = 0.32\nsamples = 5\nvalue = [1, 4]\nclass = yes", fillcolor="#6ab6ec"] ;
423 -> 424 ;
425 [label="gini = 0.0\nsamples = 1\nvalue = [1, 0]\nclass = no", fillcolor="#e58139"] ;
424 -> 425 ;
426 [label="gini = 0.0\nsamples = 4\nvalue = [0, 4]\nclass = yes", fillcolor="#399de5"] ;
424 -> 426 ;
427 [label="gini = 0.0\nsamples = 3\nvalue = [3, 0]\nclass = no", fillcolor="#e58139"] ;
423 -> 427 ;
428 [label="preco <= 50552.686\ngini = 0.095\nsamples = 20\nvalue = [1, 19]\nclass = yes", fillcolor="#43a2e6"] ;
422 -> 428 ;
429 [label="preco <= 50479.1\ngini = 0.245\nsamples = 7\nvalue = [1, 6]\nclass = yes", fillcolor="#5aade9"] ;
428 -> 429 ;
430 [label="gini = 0.0\nsamples = 6\nvalue = [0, 6]\nclass = yes", fillcolor="#399de5"] ;
429 -> 430 ;
431 [label="gini = 0.0\nsamples = 1\nvalue = [1, 0]\nclass = no", fillcolor="#e58139"] ;
429 -> 431 ;
432 [label="gini = 0.0\nsamples = 13\nvalue = [0, 13]\nclass = yes", fillcolor="#399de5"] ;
428 -> 432 ;
433 [label="gini = 0.0\nsamples = 3\nvalue = [3, 0]\nclass = no", fillcolor="#e58139"] ;
77 -> 433 ;
434 [label="km_por_ano <= 41314.172\ngini = 0.054\nsamples = 36\nvalue = [1, 35]\nclass = yes", fillcolor="#3fa0e6"] ;
76 -> 434 ;
435 [label="km_por_ano <= 41113.809\ngini = 0.142\nsamples = 13\nvalue = [1, 12]\nclass = yes", fillcolor="#49a5e7"] ;
434 -> 435 ;
436 [label="gini = 0.0\nsamples = 12\nvalue = [0, 12]\nclass = yes", fillcolor="#399de5"] ;
435 -> 436 ;
437 [label="gini = 0.0\nsamples = 1\nvalue = [1, 0]\nclass = no", fillcolor="#e58139"] ;
435 -> 437 ;
438 [label="gini = 0.0\nsamples = 23\nvalue = [0, 23]\nclass = yes", fillcolor="#399de5"] ;
434 -> 438 ;
439 [label="preco <= 51822.391\ngini = 0.338\nsamples = 705\nvalue = [152, 553]\nclass = yes", fillcolor="#6fb8ec"] ;
75 -> 439 ;
440 [label="gini = 0.0\nsamples = 2\nvalue = [2, 0]\nclass = no", fillcolor="#e58139"] ;
439 -> 440 ;
441 [label="km_por_ano <= 35996.912\ngini = 0.336\nsamples = 703\nvalue = [150, 553]\nclass = yes", fillcolor="#6fb8ec"] ;
439 -> 441 ;
442 [label="preco <= 58149.666\ngini = 0.322\nsamples = 649\nvalue = [131, 518]\nclass = yes", fillcolor="#6bb6ec"] ;
441 -> 442 ;
443 [label="preco <= 57682.305\ngini = 0.339\nsamples = 513\nvalue = [111, 402]\nclass = yes", fillcolor="#70b8ec"] ;
442 -> 443 ;
444 [label="km_por_ano <= 27414.303\ngini = 0.326\nsamples = 477\nvalue = [98, 379]\nclass = yes", fillcolor="#6cb6ec"] ;
443 -> 444 ;
445 [label="km_por_ano <= 26950.812\ngini = 0.341\nsamples = 380\nvalue = [83, 297]\nclass = yes", fillcolor="#70b8ec"] ;
444 -> 445 ;
446 [label="preco <= 53928.471\ngini = 0.327\nsamples = 364\nvalue = [75, 289]\nclass = yes", fillcolor="#6cb6ec"] ;
445 -> 446 ;
447 [label="preco <= 53881.949\ngini = 0.386\nsamples = 115\nvalue = [30, 85]\nclass = yes", fillcolor="#7fc0ee"] ;
446 -> 447 ;
448 [label="km_por_ano <= 13458.91\ngini = 0.366\nsamples = 112\nvalue = [27, 85]\nclass = yes", fillcolor="#78bced"] ;
447 -> 448 ;
449 [label="km_por_ano <= 12351.685\ngini = 0.494\nsamples = 18\nvalue = [8, 10]\nclass = yes", fillcolor="#d7ebfa"] ;
448 -> 449 ;
450 [label="idade_do_modelo <= 10.5\ngini = 0.375\nsamples = 12\nvalue = [3, 9]\nclass = yes", fillcolor="#7bbeee"] ;
449 -> 450 ;
451 [label="idade_do_modelo <= 8.0\ngini = 0.444\nsamples = 3\nvalue = [2, 1]\nclass = no", fillcolor="#f2c09c"] ;
450 -> 451 ;
452 [label="gini = 0.0\nsamples = 1\nvalue = [0, 1]\nclass = yes", fillcolor="#399de5"] ;
451 -> 452 ;
453 [label="gini = 0.0\nsamples = 2\nvalue = [2, 0]\nclass = no", fillcolor="#e58139"] ;
451 -> 453 ;
454 [label="preco <= 52257.686\ngini = 0.198\nsamples = 9\nvalue = [1, 8]\nclass = yes", fillcolor="#52a9e8"] ;
450 -> 454 ;
455 [label="gini = 0.0\nsamples = 1\nvalue = [1, 0]\nclass = no", fillcolor="#e58139"] ;
454 -> 455 ;
456 [label="gini = 0.0\nsamples = 8\nvalue = [0, 8]\nclass = yes", fillcolor="#399de5"] ;
454 -> 456 ;
457 [label="idade_do_modelo <= 19.5\ngini = 0.278\nsamples = 6\nvalue = [5, 1]\nclass = no", fillcolor="#ea9a61"] ;
449 -> 457 ;
458 [label="gini = 0.0\nsamples = 5\nvalue = [5, 0]\nclass = no", fillcolor="#e58139"] ;
457 -> 458 ;
459 [label="gini = 0.0\nsamples = 1\nvalue = [0, 1]\nclass = yes", fillcolor="#399de5"] ;
457 -> 459 ;
460 [label="km_por_ano <= 25878.188\ngini = 0.323\nsamples = 94\nvalue = [19, 75]\nclass = yes", fillcolor="#6bb6ec"] ;
448 -> 460 ;
461 [label="km_por_ano <= 25012.362\ngini = 0.339\nsamples = 88\nvalue = [19, 69]\nclass = yes", fillcolor="#70b8ec"] ;
460 -> 461 ;
462 [label="preco <= 52005.811\ngini = 0.299\nsamples = 82\nvalue = [15, 67]\nclass = yes", fillcolor="#65b3eb"] ;
461 -> 462 ;
463 [label="idade_do_modelo <= 15.0\ngini = 0.463\nsamples = 11\nvalue = [4, 7]\nclass = yes", fillcolor="#aad5f4"] ;
462 -> 463 ;
464 [label="gini = 0.0\nsamples = 2\nvalue = [2, 0]\nclass = no", fillcolor="#e58139"] ;
463 -> 464 ;
465 [label="preco <= 51998.43\ngini = 0.346\nsamples = 9\nvalue = [2, 7]\nclass = yes", fillcolor="#72b9ec"] ;
463 -> 465 ;
466 [label="km_por_ano <= 22905.735\ngini = 0.219\nsamples = 8\nvalue = [1, 7]\nclass = yes", fillcolor="#55abe9"] ;
465 -> 466 ;
467 [label="gini = 0.0\nsamples = 6\nvalue = [0, 6]\nclass = yes", fillcolor="#399de5"] ;
466 -> 467 ;
468 [label="preco <= 51975.24\ngini = 0.5\nsamples = 2\nvalue = [1, 1]\nclass = no", fillcolor="#ffffff"] ;
466 -> 468 ;
469 [label="gini = 0.0\nsamples = 1\nvalue = [0, 1]\nclass = yes", fillcolor="#399de5"] ;
468 -> 469 ;
470 [label="gini = 0.0\nsamples = 1\nvalue = [1, 0]\nclass = no", fillcolor="#e58139"] ;
468 -> 470 ;
471 [label="gini = 0.0\nsamples = 1\nvalue = [1, 0]\nclass = no", fillcolor="#e58139"] ;
465 -> 471 ;
472 [label="idade_do_modelo <= 16.5\ngini = 0.262\nsamples = 71\nvalue = [11, 60]\nclass = yes", fillcolor="#5dafea"] ;
462 -> 472 ;
473 [label="preco <= 53246.971\ngini = 0.187\nsamples = 48\nvalue = [5, 43]\nclass = yes", fillcolor="#50a8e8"] ;
472 -> 473 ;
474 [label="preco <= 53169.996\ngini = 0.251\nsamples = 34\nvalue = [5, 29]\nclass = yes", fillcolor="#5baee9"] ;
473 -> 474 ;
475 [label="preco <= 52767.709\ngini = 0.17\nsamples = 32\nvalue = [3, 29]\nclass = yes", fillcolor="#4da7e8"] ;
474 -> 475 ;
476 [label="preco <= 52724.789\ngini = 0.255\nsamples = 20\nvalue = [3, 17]\nclass = yes", fillcolor="#5caeea"] ;
475 -> 476 ;
477 [label="km_por_ano <= 18540.401\ngini = 0.188\nsamples = 19\nvalue = [2, 17]\nclass = yes", fillcolor="#50a9e8"] ;
476 -> 477 ;
478 [label="km_por_ano <= 18105.879\ngini = 0.346\nsamples = 9\nvalue = [2, 7]\nclass = yes", fillcolor="#72b9ec"] ;
477 -> 478 ;
479 [label="km_por_ano <= 15456.906\ngini = 0.219\nsamples = 8\nvalue = [1, 7]\nclass = yes", fillcolor="#55abe9"] ;
478 -> 479 ;
480 [label="km_por_ano <= 15128.601\ngini = 0.375\nsamples = 4\nvalue = [1, 3]\nclass = yes", fillcolor="#7bbeee"] ;
479 -> 480 ;
481 [label="gini = 0.0\nsamples = 3\nvalue = [0, 3]\nclass = yes", fillcolor="#399de5"] ;
480 -> 481 ;
482 [label="gini = 0.0\nsamples = 1\nvalue = [1, 0]\nclass = no", fillcolor="#e58139"] ;
480 -> 482 ;
483 [label="gini = 0.0\nsamples = 4\nvalue = [0, 4]\nclass = yes", fillcolor="#399de5"] ;
479 -> 483 ;
484 [label="gini = 0.0\nsamples = 1\nvalue = [1, 0]\nclass = no", fillcolor="#e58139"] ;
478 -> 484 ;
485 [label="gini = 0.0\nsamples = 10\nvalue = [0, 10]\nclass = yes", fillcolor="#399de5"] ;
477 -> 485 ;
486 [label="gini = 0.0\nsamples = 1\nvalue = [1, 0]\nclass = no", fillcolor="#e58139"] ;
476 -> 486 ;
487 [label="gini = 0.0\nsamples = 12\nvalue = [0, 12]\nclass = yes", fillcolor="#399de5"] ;
475 -> 487 ;
488 [label="gini = 0.0\nsamples = 2\nvalue = [2, 0]\nclass = no", fillcolor="#e58139"] ;
474 -> 488 ;
489 [label="gini = 0.0\nsamples = 14\nvalue = [0, 14]\nclass = yes", fillcolor="#399de5"] ;
473 -> 489 ;
490 [label="km_por_ano <= 19449.679\ngini = 0.386\nsamples = 23\nvalue = [6, 17]\nclass = yes", fillcolor="#7fc0ee"] ;
472 -> 490 ;
491 [label="km_por_ano <= 19065.851\ngini = 0.486\nsamples = 12\nvalue = [5, 7]\nclass = yes", fillcolor="#c6e3f8"] ;
490 -> 491 ;
492 [label="km_por_ano <= 17760.677\ngini = 0.346\nsamples = 9\nvalue = [2, 7]\nclass = yes", fillcolor="#72b9ec"] ;
491 -> 492 ;
493 [label="idade_do_modelo <= 17.5\ngini = 0.444\nsamples = 6\nvalue = [2, 4]\nclass = yes", fillcolor="#9ccef2"] ;
492 -> 493 ;
494 [label="gini = 0.0\nsamples = 1\nvalue = [1, 0]\nclass = no", fillcolor="#e58139"] ;
493 -> 494 ;
495 [label="km_por_ano <= 15343.448\ngini = 0.32\nsamples = 5\nvalue = [1, 4]\nclass = yes", fillcolor="#6ab6ec"] ;
493 -> 495 ;
496 [label="km_por_ano <= 14735.117\ngini = 0.5\nsamples = 2\nvalue = [1, 1]\nclass = no", fillcolor="#ffffff"] ;
495 -> 496 ;
497 [label="gini = 0.0\nsamples = 1\nvalue = [0, 1]\nclass = yes", fillcolor="#399de5"] ;
496 -> 497 ;
498 [label="gini = 0.0\nsamples = 1\nvalue = [1, 0]\nclass = no", fillcolor="#e58139"] ;
496 -> 498 ;
499 [label="gini = 0.0\nsamples = 3\nvalue = [0, 3]\nclass = yes", fillcolor="#399de5"] ;
495 -> 499 ;
500 [label="gini = 0.0\nsamples = 3\nvalue = [0, 3]\nclass = yes", fillcolor="#399de5"] ;
492 -> 500 ;
501 [label="gini = 0.0\nsamples = 3\nvalue = [3, 0]\nclass = no", fillcolor="#e58139"] ;
491 -> 501 ;
502 [label="km_por_ano <= 23763.515\ngini = 0.165\nsamples = 11\nvalue = [1, 10]\nclass = yes", fillcolor="#4da7e8"] ;
490 -> 502 ;
503 [label="gini = 0.0\nsamples = 9\nvalue = [0, 9]\nclass = yes", fillcolor="#399de5"] ;
502 -> 503 ;
504 [label="km_por_ano <= 24147.342\ngini = 0.5\nsamples = 2\nvalue = [1, 1]\nclass = no", fillcolor="#ffffff"] ;
502 -> 504 ;
505 [label="gini = 0.0\nsamples = 1\nvalue = [1, 0]\nclass = no", fillcolor="#e58139"] ;
504 -> 505 ;
506 [label="gini = 0.0\nsamples = 1\nvalue = [0, 1]\nclass = yes", fillcolor="#399de5"] ;
504 -> 506 ;
507 [label="preco <= 52000.6\ngini = 0.444\nsamples = 6\nvalue = [4, 2]\nclass = no", fillcolor="#f2c09c"] ;
461 -> 507 ;
508 [label="gini = 0.0\nsamples = 1\nvalue = [0, 1]\nclass = yes", fillcolor="#399de5"] ;
507 -> 508 ;
509 [label="km_por_ano <= 25229.623\ngini = 0.32\nsamples = 5\nvalue = [4, 1]\nclass = no", fillcolor="#eca06a"] ;
507 -> 509 ;
510 [label="idade_do_modelo <= 12.0\ngini = 0.5\nsamples = 2\nvalue = [1, 1]\nclass = no", fillcolor="#ffffff"] ;
509 -> 510 ;
511 [label="gini = 0.0\nsamples = 1\nvalue = [0, 1]\nclass = yes", fillcolor="#399de5"] ;
510 -> 511 ;
512 [label="gini = 0.0\nsamples = 1\nvalue = [1, 0]\nclass = no", fillcolor="#e58139"] ;
510 -> 512 ;
513 [label="gini = 0.0\nsamples = 3\nvalue = [3, 0]\nclass = no", fillcolor="#e58139"] ;
509 -> 513 ;
514 [label="gini = 0.0\nsamples = 6\nvalue = [0, 6]\nclass = yes", fillcolor="#399de5"] ;
460 -> 514 ;
515 [label="gini = 0.0\nsamples = 3\nvalue = [3, 0]\nclass = no", fillcolor="#e58139"] ;
447 -> 515 ;
516 [label="km_por_ano <= 17575.603\ngini = 0.296\nsamples = 249\nvalue = [45, 204]\nclass = yes", fillcolor="#65b3eb"] ;
446 -> 516 ;
517 [label="km_por_ano <= 13960.22\ngini = 0.221\nsamples = 95\nvalue = [12, 83]\nclass = yes", fillcolor="#56abe9"] ;
516 -> 517 ;
518 [label="preco <= 57013.275\ngini = 0.32\nsamples = 35\nvalue = [7, 28]\nclass = yes", fillcolor="#6ab6ec"] ;
517 -> 518 ;
519 [label="preco <= 55776.799\ngini = 0.185\nsamples = 29\nvalue = [3, 26]\nclass = yes", fillcolor="#50a8e8"] ;
518 -> 519 ;
520 [label="gini = 0.0\nsamples = 18\nvalue = [0, 18]\nclass = yes", fillcolor="#399de5"] ;
519 -> 520 ;
521 [label="preco <= 55907.459\ngini = 0.397\nsamples = 11\nvalue = [3, 8]\nclass = yes", fillcolor="#83c2ef"] ;
519 -> 521 ;
522 [label="gini = 0.0\nsamples = 2\nvalue = [2, 0]\nclass = no", fillcolor="#e58139"] ;
521 -> 522 ;
523 [label="preco <= 56430.02\ngini = 0.198\nsamples = 9\nvalue = [1, 8]\nclass = yes", fillcolor="#52a9e8"] ;
521 -> 523 ;
524 [label="gini = 0.0\nsamples = 5\nvalue = [0, 5]\nclass = yes", fillcolor="#399de5"] ;
523 -> 524 ;
525 [label="preco <= 56531.516\ngini = 0.375\nsamples = 4\nvalue = [1, 3]\nclass = yes", fillcolor="#7bbeee"] ;
523 -> 525 ;
526 [label="gini = 0.0\nsamples = 1\nvalue = [1, 0]\nclass = no", fillcolor="#e58139"] ;
525 -> 526 ;
527 [label="gini = 0.0\nsamples = 3\nvalue = [0, 3]\nclass = yes", fillcolor="#399de5"] ;
525 -> 527 ;
528 [label="km_por_ano <= 13045.31\ngini = 0.444\nsamples = 6\nvalue = [4, 2]\nclass = no", fillcolor="#f2c09c"] ;
518 -> 528 ;
529 [label="km_por_ano <= 12313.061\ngini = 0.444\nsamples = 3\nvalue = [1, 2]\nclass = yes", fillcolor="#9ccef2"] ;
528 -> 529 ;
530 [label="gini = 0.0\nsamples = 1\nvalue = [1, 0]\nclass = no", fillcolor="#e58139"] ;
529 -> 530 ;
531 [label="gini = 0.0\nsamples = 2\nvalue = [0, 2]\nclass = yes", fillcolor="#399de5"] ;
529 -> 531 ;
532 [label="gini = 0.0\nsamples = 3\nvalue = [3, 0]\nclass = no", fillcolor="#e58139"] ;
528 -> 532 ;
533 [label="preco <= 55481.576\ngini = 0.153\nsamples = 60\nvalue = [5, 55]\nclass = yes", fillcolor="#4ba6e7"] ;
517 -> 533 ;
534 [label="preco <= 55426.211\ngini = 0.302\nsamples = 27\nvalue = [5, 22]\nclass = yes", fillcolor="#66b3eb"] ;
533 -> 534 ;
535 [label="km_por_ano <= 14479.232\ngini = 0.219\nsamples = 24\nvalue = [3, 21]\nclass = yes", fillcolor="#55abe9"] ;
534 -> 535 ;
536 [label="idade_do_modelo <= 15.0\ngini = 0.5\nsamples = 2\nvalue = [1, 1]\nclass = no", fillcolor="#ffffff"] ;
535 -> 536 ;
537 [label="gini = 0.0\nsamples = 1\nvalue = [1, 0]\nclass = no", fillcolor="#e58139"] ;
536 -> 537 ;
538 [label="gini = 0.0\nsamples = 1\nvalue = [0, 1]\nclass = yes", fillcolor="#399de5"] ;
536 -> 538 ;
539 [label="idade_do_modelo <= 13.5\ngini = 0.165\nsamples = 22\nvalue = [2, 20]\nclass = yes", fillcolor="#4da7e8"] ;
535 -> 539 ;
540 [label="gini = 0.0\nsamples = 10\nvalue = [0, 10]\nclass = yes", fillcolor="#399de5"] ;
539 -> 540 ;
541 [label="idade_do_modelo <= 14.5\ngini = 0.278\nsamples = 12\nvalue = [2, 10]\nclass = yes", fillcolor="#61b1ea"] ;
539 -> 541 ;
542 [label="km_por_ano <= 16974.514\ngini = 0.5\nsamples = 2\nvalue = [1, 1]\nclass = no", fillcolor="#ffffff"] ;
541 -> 542 ;
543 [label="gini = 0.0\nsamples = 1\nvalue = [1, 0]\nclass = no", fillcolor="#e58139"] ;
542 -> 543 ;
544 [label="gini = 0.0\nsamples = 1\nvalue = [0, 1]\nclass = yes", fillcolor="#399de5"] ;
542 -> 544 ;
545 [label="preco <= 54965.58\ngini = 0.18\nsamples = 10\nvalue = [1, 9]\nclass = yes", fillcolor="#4fa8e8"] ;
541 -> 545 ;
546 [label="gini = 0.0\nsamples = 8\nvalue = [0, 8]\nclass = yes", fillcolor="#399de5"] ;
545 -> 546 ;
547 [label="km_por_ano <= 15094.0\ngini = 0.5\nsamples = 2\nvalue = [1, 1]\nclass = no", fillcolor="#ffffff"] ;
545 -> 547 ;
548 [label="gini = 0.0\nsamples = 1\nvalue = [0, 1]\nclass = yes", fillcolor="#399de5"] ;
547 -> 548 ;
549 [label="gini = 0.0\nsamples = 1\nvalue = [1, 0]\nclass = no", fillcolor="#e58139"] ;
547 -> 549 ;
550 [label="idade_do_modelo <= 15.5\ngini = 0.444\nsamples = 3\nvalue = [2, 1]\nclass = no", fillcolor="#f2c09c"] ;
534 -> 550 ;
551 [label="gini = 0.0\nsamples = 1\nvalue = [0, 1]\nclass = yes", fillcolor="#399de5"] ;
550 -> 551 ;
552 [label="gini = 0.0\nsamples = 2\nvalue = [2, 0]\nclass = no", fillcolor="#e58139"] ;
550 -> 552 ;
553 [label="gini = 0.0\nsamples = 33\nvalue = [0, 33]\nclass = yes", fillcolor="#399de5"] ;
533 -> 553 ;
554 [label="km_por_ano <= 18914.572\ngini = 0.337\nsamples = 154\nvalue = [33, 121]\nclass = yes", fillcolor="#6fb8ec"] ;
516 -> 554 ;
555 [label="idade_do_modelo <= 12.5\ngini = 0.475\nsamples = 31\nvalue = [12, 19]\nclass = yes", fillcolor="#b6dbf5"] ;
554 -> 555 ;
556 [label="gini = 0.0\nsamples = 6\nvalue = [0, 6]\nclass = yes", fillcolor="#399de5"] ;
555 -> 556 ;
557 [label="km_por_ano <= 18642.595\ngini = 0.499\nsamples = 25\nvalue = [12, 13]\nclass = yes", fillcolor="#f0f7fd"] ;
555 -> 557 ;
558 [label="km_por_ano <= 18528.332\ngini = 0.483\nsamples = 22\nvalue = [9, 13]\nclass = yes", fillcolor="#c2e1f7"] ;
557 -> 558 ;
559 [label="km_por_ano <= 18460.739\ngini = 0.499\nsamples = 19\nvalue = [9, 10]\nclass = yes", fillcolor="#ebf5fc"] ;
558 -> 559 ;
560 [label="idade_do_modelo <= 19.5\ngini = 0.469\nsamples = 16\nvalue = [6, 10]\nclass = yes", fillcolor="#b0d8f5"] ;
559 -> 560 ;
561 [label="preco <= 55257.131\ngini = 0.408\nsamples = 14\nvalue = [4, 10]\nclass = yes", fillcolor="#88c4ef"] ;
560 -> 561 ;
562 [label="gini = 0.0\nsamples = 6\nvalue = [0, 6]\nclass = yes", fillcolor="#399de5"] ;
561 -> 562 ;
563 [label="preco <= 56006.98\ngini = 0.5\nsamples = 8\nvalue = [4, 4]\nclass = no", fillcolor="#ffffff"] ;
561 -> 563 ;
564 [label="gini = 0.0\nsamples = 3\nvalue = [3, 0]\nclass = no", fillcolor="#e58139"] ;
563 -> 564 ;
565 [label="preco <= 57387.516\ngini = 0.32\nsamples = 5\nvalue = [1, 4]\nclass = yes", fillcolor="#6ab6ec"] ;
563 -> 565 ;
566 [label="gini = 0.0\nsamples = 4\nvalue = [0, 4]\nclass = yes", fillcolor="#399de5"] ;
565 -> 566 ;
567 [label="gini = 0.0\nsamples = 1\nvalue = [1, 0]\nclass = no", fillcolor="#e58139"] ;
565 -> 567 ;
568 [label="gini = 0.0\nsamples = 2\nvalue = [2, 0]\nclass = no", fillcolor="#e58139"] ;
560 -> 568 ;
569 [label="gini = 0.0\nsamples = 3\nvalue = [3, 0]\nclass = no", fillcolor="#e58139"] ;
559 -> 569 ;
570 [label="gini = 0.0\nsamples = 3\nvalue = [0, 3]\nclass = yes", fillcolor="#399de5"] ;
558 -> 570 ;
571 [label="gini = 0.0\nsamples = 3\nvalue = [3, 0]\nclass = no", fillcolor="#e58139"] ;
557 -> 571 ;
572 [label="idade_do_modelo <= 13.5\ngini = 0.283\nsamples = 123\nvalue = [21, 102]\nclass = yes", fillcolor="#62b1ea"] ;
554 -> 572 ;
573 [label="preco <= 55730.244\ngini = 0.38\nsamples = 47\nvalue = [12, 35]\nclass = yes", fillcolor="#7dbfee"] ;
572 -> 573 ;
574 [label="idade_do_modelo <= 12.5\ngini = 0.252\nsamples = 27\nvalue = [4, 23]\nclass = yes", fillcolor="#5baeea"] ;
573 -> 574 ;
575 [label="preco <= 54238.529\ngini = 0.204\nsamples = 26\nvalue = [3, 23]\nclass = yes", fillcolor="#53aae8"] ;
574 -> 575 ;
576 [label="preco <= 54009.621\ngini = 0.5\nsamples = 4\nvalue = [2, 2]\nclass = no", fillcolor="#ffffff"] ;
575 -> 576 ;
577 [label="gini = 0.0\nsamples = 1\nvalue = [0, 1]\nclass = yes", fillcolor="#399de5"] ;
576 -> 577 ;
578 [label="km_por_ano <= 25655.294\ngini = 0.444\nsamples = 3\nvalue = [2, 1]\nclass = no", fillcolor="#f2c09c"] ;
576 -> 578 ;
579 [label="gini = 0.0\nsamples = 2\nvalue = [2, 0]\nclass = no", fillcolor="#e58139"] ;
578 -> 579 ;
580 [label="gini = 0.0\nsamples = 1\nvalue = [0, 1]\nclass = yes", fillcolor="#399de5"] ;
578 -> 580 ;
581 [label="km_por_ano <= 20308.262\ngini = 0.087\nsamples = 22\nvalue = [1, 21]\nclass = yes", fillcolor="#42a2e6"] ;
575 -> 581 ;
582 [label="km_por_ano <= 20140.085\ngini = 0.245\nsamples = 7\nvalue = [1, 6]\nclass = yes", fillcolor="#5aade9"] ;
581 -> 582 ;
583 [label="gini = 0.0\nsamples = 6\nvalue = [0, 6]\nclass = yes", fillcolor="#399de5"] ;
582 -> 583 ;
584 [label="gini = 0.0\nsamples = 1\nvalue = [1, 0]\nclass = no", fillcolor="#e58139"] ;
582 -> 584 ;
585 [label="gini = 0.0\nsamples = 15\nvalue = [0, 15]\nclass = yes", fillcolor="#399de5"] ;
581 -> 585 ;
586 [label="gini = 0.0\nsamples = 1\nvalue = [1, 0]\nclass = no", fillcolor="#e58139"] ;
574 -> 586 ;
587 [label="km_por_ano <= 20489.312\ngini = 0.48\nsamples = 20\nvalue = [8, 12]\nclass = yes", fillcolor="#bddef6"] ;
573 -> 587 ;
588 [label="gini = 0.0\nsamples = 3\nvalue = [0, 3]\nclass = yes", fillcolor="#399de5"] ;
587 -> 588 ;
589 [label="km_por_ano <= 23415.896\ngini = 0.498\nsamples = 17\nvalue = [8, 9]\nclass = yes", fillcolor="#e9f4fc"] ;
587 -> 589 ;
590 [label="preco <= 56695.58\ngini = 0.444\nsamples = 9\nvalue = [6, 3]\nclass = no", fillcolor="#f2c09c"] ;
589 -> 590 ;
591 [label="gini = 0.0\nsamples = 4\nvalue = [4, 0]\nclass = no", fillcolor="#e58139"] ;
590 -> 591 ;
592 [label="idade_do_modelo <= 9.0\ngini = 0.48\nsamples = 5\nvalue = [2, 3]\nclass = yes", fillcolor="#bddef6"] ;
590 -> 592 ;
593 [label="gini = 0.0\nsamples = 2\nvalue = [0, 2]\nclass = yes", fillcolor="#399de5"] ;
592 -> 593 ;
594 [label="km_por_ano <= 22526.736\ngini = 0.444\nsamples = 3\nvalue = [2, 1]\nclass = no", fillcolor="#f2c09c"] ;
592 -> 594 ;
595 [label="gini = 0.0\nsamples = 2\nvalue = [2, 0]\nclass = no", fillcolor="#e58139"] ;
594 -> 595 ;
596 [label="gini = 0.0\nsamples = 1\nvalue = [0, 1]\nclass = yes", fillcolor="#399de5"] ;
594 -> 596 ;
597 [label="preco <= 56645.826\ngini = 0.375\nsamples = 8\nvalue = [2, 6]\nclass = yes", fillcolor="#7bbeee"] ;
589 -> 597 ;
598 [label="gini = 0.0\nsamples = 5\nvalue = [0, 5]\nclass = yes", fillcolor="#399de5"] ;
597 -> 598 ;
599 [label="idade_do_modelo <= 6.5\ngini = 0.444\nsamples = 3\nvalue = [2, 1]\nclass = no", fillcolor="#f2c09c"] ;
597 -> 599 ;
600 [label="gini = 0.0\nsamples = 1\nvalue = [0, 1]\nclass = yes", fillcolor="#399de5"] ;
599 -> 600 ;
601 [label="gini = 0.0\nsamples = 2\nvalue = [2, 0]\nclass = no", fillcolor="#e58139"] ;
599 -> 601 ;
602 [label="preco <= 55648.346\ngini = 0.209\nsamples = 76\nvalue = [9, 67]\nclass = yes", fillcolor="#54aae8"] ;
572 -> 602 ;
603 [label="preco <= 55522.289\ngini = 0.32\nsamples = 30\nvalue = [6, 24]\nclass = yes", fillcolor="#6ab6ec"] ;
602 -> 603 ;
604 [label="km_por_ano <= 26009.349\ngini = 0.245\nsamples = 28\nvalue = [4, 24]\nclass = yes", fillcolor="#5aade9"] ;
603 -> 604 ;
605 [label="km_por_ano <= 23048.968\ngini = 0.204\nsamples = 26\nvalue = [3, 23]\nclass = yes", fillcolor="#53aae8"] ;
604 -> 605 ;
606 [label="km_por_ano <= 22621.688\ngini = 0.32\nsamples = 15\nvalue = [3, 12]\nclass = yes", fillcolor="#6ab6ec"] ;
605 -> 606 ;
607 [label="idade_do_modelo <= 18.5\ngini = 0.245\nsamples = 14\nvalue = [2, 12]\nclass = yes", fillcolor="#5aade9"] ;
606 -> 607 ;
608 [label="preco <= 54237.771\ngini = 0.375\nsamples = 8\nvalue = [2, 6]\nclass = yes", fillcolor="#7bbeee"] ;
607 -> 608 ;
609 [label="gini = 0.0\nsamples = 1\nvalue = [1, 0]\nclass = no", fillcolor="#e58139"] ;
608 -> 609 ;
610 [label="idade_do_modelo <= 17.5\ngini = 0.245\nsamples = 7\nvalue = [1, 6]\nclass = yes", fillcolor="#5aade9"] ;
608 -> 610 ;
611 [label="gini = 0.0\nsamples = 6\nvalue = [0, 6]\nclass = yes", fillcolor="#399de5"] ;
610 -> 611 ;
612 [label="gini = 0.0\nsamples = 1\nvalue = [1, 0]\nclass = no", fillcolor="#e58139"] ;
610 -> 612 ;
613 [label="gini = 0.0\nsamples = 6\nvalue = [0, 6]\nclass = yes", fillcolor="#399de5"] ;
607 -> 613 ;
614 [label="gini = 0.0\nsamples = 1\nvalue = [1, 0]\nclass = no", fillcolor="#e58139"] ;
606 -> 614 ;
615 [label="gini = 0.0\nsamples = 11\nvalue = [0, 11]\nclass = yes", fillcolor="#399de5"] ;
605 -> 615 ;
616 [label="preco <= 54599.506\ngini = 0.5\nsamples = 2\nvalue = [1, 1]\nclass = no", fillcolor="#ffffff"] ;
604 -> 616 ;
617 [label="gini = 0.0\nsamples = 1\nvalue = [1, 0]\nclass = no", fillcolor="#e58139"] ;
616 -> 617 ;
618 [label="gini = 0.0\nsamples = 1\nvalue = [0, 1]\nclass = yes", fillcolor="#399de5"] ;
616 -> 618 ;
619 [label="gini = 0.0\nsamples = 2\nvalue = [2, 0]\nclass = no", fillcolor="#e58139"] ;
603 -> 619 ;
620 [label="preco <= 57175.885\ngini = 0.122\nsamples = 46\nvalue = [3, 43]\nclass = yes", fillcolor="#47a4e7"] ;
602 -> 620 ;
621 [label="km_por_ano <= 26470.424\ngini = 0.049\nsamples = 40\nvalue = [1, 39]\nclass = yes", fillcolor="#3ea0e6"] ;
620 -> 621 ;
622 [label="gini = 0.0\nsamples = 37\nvalue = [0, 37]\nclass = yes", fillcolor="#399de5"] ;
621 -> 622 ;
623 [label="idade_do_modelo <= 18.0\ngini = 0.444\nsamples = 3\nvalue = [1, 2]\nclass = yes", fillcolor="#9ccef2"] ;
621 -> 623 ;
624 [label="gini = 0.0\nsamples = 1\nvalue = [1, 0]\nclass = no", fillcolor="#e58139"] ;
623 -> 624 ;
625 [label="gini = 0.0\nsamples = 2\nvalue = [0, 2]\nclass = yes", fillcolor="#399de5"] ;
623 -> 625 ;
626 [label="preco <= 57220.996\ngini = 0.444\nsamples = 6\nvalue = [2, 4]\nclass = yes", fillcolor="#9ccef2"] ;
620 -> 626 ;
627 [label="gini = 0.0\nsamples = 1\nvalue = [1, 0]\nclass = no", fillcolor="#e58139"] ;
626 -> 627 ;
628 [label="km_por_ano <= 22196.017\ngini = 0.32\nsamples = 5\nvalue = [1, 4]\nclass = yes", fillcolor="#6ab6ec"] ;
626 -> 628 ;
629 [label="preco <= 57388.574\ngini = 0.5\nsamples = 2\nvalue = [1, 1]\nclass = no", fillcolor="#ffffff"] ;
628 -> 629 ;
630 [label="gini = 0.0\nsamples = 1\nvalue = [0, 1]\nclass = yes", fillcolor="#399de5"] ;
629 -> 630 ;
631 [label="gini = 0.0\nsamples = 1\nvalue = [1, 0]\nclass = no", fillcolor="#e58139"] ;
629 -> 631 ;
632 [label="gini = 0.0\nsamples = 3\nvalue = [0, 3]\nclass = yes", fillcolor="#399de5"] ;
628 -> 632 ;
633 [label="idade_do_modelo <= 16.5\ngini = 0.5\nsamples = 16\nvalue = [8, 8]\nclass = no", fillcolor="#ffffff"] ;
445 -> 633 ;
634 [label="preco <= 52662.559\ngini = 0.473\nsamples = 13\nvalue = [8, 5]\nclass = no", fillcolor="#f5d0b5"] ;
633 -> 634 ;
635 [label="gini = 0.0\nsamples = 2\nvalue = [0, 2]\nclass = yes", fillcolor="#399de5"] ;
634 -> 635 ;
636 [label="preco <= 56720.854\ngini = 0.397\nsamples = 11\nvalue = [8, 3]\nclass = no", fillcolor="#efb083"] ;
634 -> 636 ;
637 [label="idade_do_modelo <= 6.5\ngini = 0.219\nsamples = 8\nvalue = [7, 1]\nclass = no", fillcolor="#e99355"] ;
636 -> 637 ;
638 [label="gini = 0.0\nsamples = 1\nvalue = [0, 1]\nclass = yes", fillcolor="#399de5"] ;
637 -> 638 ;
639 [label="gini = 0.0\nsamples = 7\nvalue = [7, 0]\nclass = no", fillcolor="#e58139"] ;
637 -> 639 ;
640 [label="preco <= 57041.266\ngini = 0.444\nsamples = 3\nvalue = [1, 2]\nclass = yes", fillcolor="#9ccef2"] ;
636 -> 640 ;
641 [label="gini = 0.0\nsamples = 2\nvalue = [0, 2]\nclass = yes", fillcolor="#399de5"] ;
640 -> 641 ;
642 [label="gini = 0.0\nsamples = 1\nvalue = [1, 0]\nclass = no", fillcolor="#e58139"] ;
640 -> 642 ;
643 [label="gini = 0.0\nsamples = 3\nvalue = [0, 3]\nclass = yes", fillcolor="#399de5"] ;
633 -> 643 ;
644 [label="preco <= 55513.359\ngini = 0.261\nsamples = 97\nvalue = [15, 82]\nclass = yes", fillcolor="#5dafea"] ;
444 -> 644 ;
645 [label="preco <= 53418.139\ngini = 0.146\nsamples = 63\nvalue = [5, 58]\nclass = yes", fillcolor="#4aa5e7"] ;
644 -> 645 ;
646 [label="preco <= 53384.174\ngini = 0.32\nsamples = 25\nvalue = [5, 20]\nclass = yes", fillcolor="#6ab6ec"] ;
645 -> 646 ;
647 [label="km_por_ano <= 31864.127\ngini = 0.278\nsamples = 24\nvalue = [4, 20]\nclass = yes", fillcolor="#61b1ea"] ;
646 -> 647 ;
648 [label="idade_do_modelo <= 17.0\ngini = 0.124\nsamples = 15\nvalue = [1, 14]\nclass = yes", fillcolor="#47a4e7"] ;
647 -> 648 ;
649 [label="gini = 0.0\nsamples = 12\nvalue = [0, 12]\nclass = yes", fillcolor="#399de5"] ;
648 -> 649 ;
650 [label="preco <= 52468.086\ngini = 0.444\nsamples = 3\nvalue = [1, 2]\nclass = yes", fillcolor="#9ccef2"] ;
648 -> 650 ;
651 [label="gini = 0.0\nsamples = 1\nvalue = [1, 0]\nclass = no", fillcolor="#e58139"] ;
650 -> 651 ;
652 [label="gini = 0.0\nsamples = 2\nvalue = [0, 2]\nclass = yes", fillcolor="#399de5"] ;
650 -> 652 ;
653 [label="km_por_ano <= 32051.615\ngini = 0.444\nsamples = 9\nvalue = [3, 6]\nclass = yes", fillcolor="#9ccef2"] ;
647 -> 653 ;
654 [label="gini = 0.0\nsamples = 1\nvalue = [1, 0]\nclass = no", fillcolor="#e58139"] ;
653 -> 654 ;
655 [label="km_por_ano <= 33455.766\ngini = 0.375\nsamples = 8\nvalue = [2, 6]\nclass = yes", fillcolor="#7bbeee"] ;
653 -> 655 ;
656 [label="preco <= 53194.709\ngini = 0.48\nsamples = 5\nvalue = [2, 3]\nclass = yes", fillcolor="#bddef6"] ;
655 -> 656 ;
657 [label="preco <= 52406.346\ngini = 0.444\nsamples = 3\nvalue = [2, 1]\nclass = no", fillcolor="#f2c09c"] ;
656 -> 657 ;
658 [label="gini = 0.0\nsamples = 1\nvalue = [0, 1]\nclass = yes", fillcolor="#399de5"] ;
657 -> 658 ;
659 [label="gini = 0.0\nsamples = 2\nvalue = [2, 0]\nclass = no", fillcolor="#e58139"] ;
657 -> 659 ;
660 [label="gini = 0.0\nsamples = 2\nvalue = [0, 2]\nclass = yes", fillcolor="#399de5"] ;
656 -> 660 ;
661 [label="gini = 0.0\nsamples = 3\nvalue = [0, 3]\nclass = yes", fillcolor="#399de5"] ;
655 -> 661 ;
662 [label="gini = 0.0\nsamples = 1\nvalue = [1, 0]\nclass = no", fillcolor="#e58139"] ;
646 -> 662 ;
663 [label="gini = 0.0\nsamples = 38\nvalue = [0, 38]\nclass = yes", fillcolor="#399de5"] ;
645 -> 663 ;
664 [label="preco <= 56007.148\ngini = 0.415\nsamples = 34\nvalue = [10, 24]\nclass = yes", fillcolor="#8bc6f0"] ;
644 -> 664 ;
665 [label="km_por_ano <= 31457.77\ngini = 0.48\nsamples = 10\nvalue = [6, 4]\nclass = no", fillcolor="#f6d5bd"] ;
664 -> 665 ;
666 [label="gini = 0.0\nsamples = 5\nvalue = [5, 0]\nclass = no", fillcolor="#e58139"] ;
665 -> 666 ;
667 [label="idade_do_modelo <= 7.0\ngini = 0.32\nsamples = 5\nvalue = [1, 4]\nclass = yes", fillcolor="#6ab6ec"] ;
665 -> 667 ;
668 [label="gini = 0.0\nsamples = 1\nvalue = [1, 0]\nclass = no", fillcolor="#e58139"] ;
667 -> 668 ;
669 [label="gini = 0.0\nsamples = 4\nvalue = [0, 4]\nclass = yes", fillcolor="#399de5"] ;
667 -> 669 ;
670 [label="idade_do_modelo <= 19.5\ngini = 0.278\nsamples = 24\nvalue = [4, 20]\nclass = yes", fillcolor="#61b1ea"] ;
664 -> 670 ;
671 [label="preco <= 57416.381\ngini = 0.188\nsamples = 19\nvalue = [2, 17]\nclass = yes", fillcolor="#50a9e8"] ;
670 -> 671 ;
672 [label="km_por_ano <= 29038.932\ngini = 0.111\nsamples = 17\nvalue = [1, 16]\nclass = yes", fillcolor="#45a3e7"] ;
671 -> 672 ;
673 [label="km_por_ano <= 28743.617\ngini = 0.219\nsamples = 8\nvalue = [1, 7]\nclass = yes", fillcolor="#55abe9"] ;
672 -> 673 ;
674 [label="gini = 0.0\nsamples = 7\nvalue = [0, 7]\nclass = yes", fillcolor="#399de5"] ;
673 -> 674 ;
675 [label="gini = 0.0\nsamples = 1\nvalue = [1, 0]\nclass = no", fillcolor="#e58139"] ;
673 -> 675 ;
676 [label="gini = 0.0\nsamples = 9\nvalue = [0, 9]\nclass = yes", fillcolor="#399de5"] ;
672 -> 676 ;
677 [label="preco <= 57542.236\ngini = 0.5\nsamples = 2\nvalue = [1, 1]\nclass = no", fillcolor="#ffffff"] ;
671 -> 677 ;
678 [label="gini = 0.0\nsamples = 1\nvalue = [1, 0]\nclass = no", fillcolor="#e58139"] ;
677 -> 678 ;
679 [label="gini = 0.0\nsamples = 1\nvalue = [0, 1]\nclass = yes", fillcolor="#399de5"] ;
677 -> 679 ;
680 [label="preco <= 57027.859\ngini = 0.48\nsamples = 5\nvalue = [2, 3]\nclass = yes", fillcolor="#bddef6"] ;
670 -> 680 ;
681 [label="preco <= 56260.846\ngini = 0.444\nsamples = 3\nvalue = [2, 1]\nclass = no", fillcolor="#f2c09c"] ;
680 -> 681 ;
682 [label="gini = 0.0\nsamples = 1\nvalue = [0, 1]\nclass = yes", fillcolor="#399de5"] ;
681 -> 682 ;
683 [label="gini = 0.0\nsamples = 2\nvalue = [2, 0]\nclass = no", fillcolor="#e58139"] ;
681 -> 683 ;
684 [label="gini = 0.0\nsamples = 2\nvalue = [0, 2]\nclass = yes", fillcolor="#399de5"] ;
680 -> 684 ;
685 [label="km_por_ano <= 29799.344\ngini = 0.461\nsamples = 36\nvalue = [13, 23]\nclass = yes", fillcolor="#a9d4f4"] ;
443 -> 685 ;
686 [label="idade_do_modelo <= 18.5\ngini = 0.438\nsamples = 34\nvalue = [11, 23]\nclass = yes", fillcolor="#98ccf1"] ;
685 -> 686 ;
687 [label="km_por_ano <= 13965.853\ngini = 0.471\nsamples = 29\nvalue = [11, 18]\nclass = yes", fillcolor="#b2d9f5"] ;
686 -> 687 ;
688 [label="gini = 0.0\nsamples = 3\nvalue = [0, 3]\nclass = yes", fillcolor="#399de5"] ;
687 -> 688 ;
689 [label="km_por_ano <= 17811.37\ngini = 0.488\nsamples = 26\nvalue = [11, 15]\nclass = yes", fillcolor="#cae5f8"] ;
687 -> 689 ;
690 [label="km_por_ano <= 16416.073\ngini = 0.32\nsamples = 5\nvalue = [4, 1]\nclass = no", fillcolor="#eca06a"] ;
689 -> 690 ;
691 [label="gini = 0.0\nsamples = 2\nvalue = [2, 0]\nclass = no", fillcolor="#e58139"] ;
690 -> 691 ;
692 [label="km_por_ano <= 16804.729\ngini = 0.444\nsamples = 3\nvalue = [2, 1]\nclass = no", fillcolor="#f2c09c"] ;
690 -> 692 ;
693 [label="gini = 0.0\nsamples = 1\nvalue = [0, 1]\nclass = yes", fillcolor="#399de5"] ;
692 -> 693 ;
694 [label="gini = 0.0\nsamples = 2\nvalue = [2, 0]\nclass = no", fillcolor="#e58139"] ;
692 -> 694 ;
695 [label="preco <= 57722.16\ngini = 0.444\nsamples = 21\nvalue = [7, 14]\nclass = yes", fillcolor="#9ccef2"] ;
689 -> 695 ;
696 [label="gini = 0.0\nsamples = 1\nvalue = [1, 0]\nclass = no", fillcolor="#e58139"] ;
695 -> 696 ;
697 [label="preco <= 58135.111\ngini = 0.42\nsamples = 20\nvalue = [6, 14]\nclass = yes", fillcolor="#8ec7f0"] ;
695 -> 697 ;
698 [label="km_por_ano <= 25691.504\ngini = 0.388\nsamples = 19\nvalue = [5, 14]\nclass = yes", fillcolor="#80c0ee"] ;
697 -> 698 ;
699 [label="km_por_ano <= 24581.06\ngini = 0.459\nsamples = 14\nvalue = [5, 9]\nclass = yes", fillcolor="#a7d3f3"] ;
698 -> 699 ;
700 [label="idade_do_modelo <= 15.5\ngini = 0.375\nsamples = 12\nvalue = [3, 9]\nclass = yes", fillcolor="#7bbeee"] ;
699 -> 700 ;
701 [label="km_por_ano <= 23610.628\ngini = 0.198\nsamples = 9\nvalue = [1, 8]\nclass = yes", fillcolor="#52a9e8"] ;
700 -> 701 ;
702 [label="gini = 0.0\nsamples = 7\nvalue = [0, 7]\nclass = yes", fillcolor="#399de5"] ;
701 -> 702 ;
703 [label="idade_do_modelo <= 9.0\ngini = 0.5\nsamples = 2\nvalue = [1, 1]\nclass = no", fillcolor="#ffffff"] ;
701 -> 703 ;
704 [label="gini = 0.0\nsamples = 1\nvalue = [0, 1]\nclass = yes", fillcolor="#399de5"] ;
703 -> 704 ;
705 [label="gini = 0.0\nsamples = 1\nvalue = [1, 0]\nclass = no", fillcolor="#e58139"] ;
703 -> 705 ;
706 [label="km_por_ano <= 20080.539\ngini = 0.444\nsamples = 3\nvalue = [2, 1]\nclass = no", fillcolor="#f2c09c"] ;
700 -> 706 ;
707 [label="gini = 0.0\nsamples = 2\nvalue = [2, 0]\nclass = no", fillcolor="#e58139"] ;
706 -> 707 ;
708 [label="gini = 0.0\nsamples = 1\nvalue = [0, 1]\nclass = yes", fillcolor="#399de5"] ;
706 -> 708 ;
709 [label="gini = 0.0\nsamples = 2\nvalue = [2, 0]\nclass = no", fillcolor="#e58139"] ;
699 -> 709 ;
710 [label="gini = 0.0\nsamples = 5\nvalue = [0, 5]\nclass = yes", fillcolor="#399de5"] ;
698 -> 710 ;
711 [label="gini = 0.0\nsamples = 1\nvalue = [1, 0]\nclass = no", fillcolor="#e58139"] ;
697 -> 711 ;
712 [label="gini = 0.0\nsamples = 5\nvalue = [0, 5]\nclass = yes", fillcolor="#399de5"] ;
686 -> 712 ;
713 [label="gini = 0.0\nsamples = 2\nvalue = [2, 0]\nclass = no", fillcolor="#e58139"] ;
685 -> 713 ;
714 [label="preco <= 58379.135\ngini = 0.251\nsamples = 136\nvalue = [20, 116]\nclass = yes", fillcolor="#5baee9"] ;
442 -> 714 ;
715 [label="gini = 0.0\nsamples = 17\nvalue = [0, 17]\nclass = yes", fillcolor="#399de5"] ;
714 -> 715 ;
716 [label="preco <= 58394.135\ngini = 0.28\nsamples = 119\nvalue = [20, 99]\nclass = yes", fillcolor="#61b1ea"] ;
714 -> 716 ;
717 [label="gini = 0.0\nsamples = 2\nvalue = [2, 0]\nclass = no", fillcolor="#e58139"] ;
716 -> 717 ;
718 [label="km_por_ano <= 13932.861\ngini = 0.26\nsamples = 117\nvalue = [18, 99]\nclass = yes", fillcolor="#5dafea"] ;
716 -> 718 ;
719 [label="km_por_ano <= 13435.575\ngini = 0.463\nsamples = 11\nvalue = [4, 7]\nclass = yes", fillcolor="#aad5f4"] ;
718 -> 719 ;
720 [label="idade_do_modelo <= 12.5\ngini = 0.346\nsamples = 9\nvalue = [2, 7]\nclass = yes", fillcolor="#72b9ec"] ;
719 -> 720 ;
721 [label="gini = 0.0\nsamples = 3\nvalue = [0, 3]\nclass = yes", fillcolor="#399de5"] ;
720 -> 721 ;
722 [label="idade_do_modelo <= 14.5\ngini = 0.444\nsamples = 6\nvalue = [2, 4]\nclass = yes", fillcolor="#9ccef2"] ;
720 -> 722 ;
723 [label="gini = 0.0\nsamples = 1\nvalue = [1, 0]\nclass = no", fillcolor="#e58139"] ;
722 -> 723 ;
724 [label="preco <= 59200.898\ngini = 0.32\nsamples = 5\nvalue = [1, 4]\nclass = yes", fillcolor="#6ab6ec"] ;
722 -> 724 ;
725 [label="gini = 0.0\nsamples = 3\nvalue = [0, 3]\nclass = yes", fillcolor="#399de5"] ;
724 -> 725 ;
726 [label="km_por_ano <= 10109.874\ngini = 0.5\nsamples = 2\nvalue = [1, 1]\nclass = no", fillcolor="#ffffff"] ;
724 -> 726 ;
727 [label="gini = 0.0\nsamples = 1\nvalue = [1, 0]\nclass = no", fillcolor="#e58139"] ;
726 -> 727 ;
728 [label="gini = 0.0\nsamples = 1\nvalue = [0, 1]\nclass = yes", fillcolor="#399de5"] ;
726 -> 728 ;
729 [label="gini = 0.0\nsamples = 2\nvalue = [2, 0]\nclass = no", fillcolor="#e58139"] ;
719 -> 729 ;
730 [label="idade_do_modelo <= 7.5\ngini = 0.229\nsamples = 106\nvalue = [14, 92]\nclass = yes", fillcolor="#57ace9"] ;
718 -> 730 ;
731 [label="preco <= 59701.141\ngini = 0.397\nsamples = 11\nvalue = [3, 8]\nclass = yes", fillcolor="#83c2ef"] ;
730 -> 731 ;
732 [label="km_por_ano <= 16281.693\ngini = 0.198\nsamples = 9\nvalue = [1, 8]\nclass = yes", fillcolor="#52a9e8"] ;
731 -> 732 ;
733 [label="km_por_ano <= 15882.577\ngini = 0.444\nsamples = 3\nvalue = [1, 2]\nclass = yes", fillcolor="#9ccef2"] ;
732 -> 733 ;
734 [label="gini = 0.0\nsamples = 2\nvalue = [0, 2]\nclass = yes", fillcolor="#399de5"] ;
733 -> 734 ;
735 [label="gini = 0.0\nsamples = 1\nvalue = [1, 0]\nclass = no", fillcolor="#e58139"] ;
733 -> 735 ;
736 [label="gini = 0.0\nsamples = 6\nvalue = [0, 6]\nclass = yes", fillcolor="#399de5"] ;
732 -> 736 ;
737 [label="gini = 0.0\nsamples = 2\nvalue = [2, 0]\nclass = no", fillcolor="#e58139"] ;
731 -> 737 ;
738 [label="preco <= 59125.871\ngini = 0.205\nsamples = 95\nvalue = [11, 84]\nclass = yes", fillcolor="#53aae8"] ;
730 -> 738 ;
739 [label="preco <= 59101.26\ngini = 0.273\nsamples = 49\nvalue = [8, 41]\nclass = yes", fillcolor="#60b0ea"] ;
738 -> 739 ;
740 [label="km_por_ano <= 21929.671\ngini = 0.227\nsamples = 46\nvalue = [6, 40]\nclass = yes", fillcolor="#57ace9"] ;
739 -> 740 ;
741 [label="km_por_ano <= 16236.631\ngini = 0.071\nsamples = 27\nvalue = [1, 26]\nclass = yes", fillcolor="#41a1e6"] ;
740 -> 741 ;
742 [label="km_por_ano <= 16041.901\ngini = 0.219\nsamples = 8\nvalue = [1, 7]\nclass = yes", fillcolor="#55abe9"] ;
741 -> 742 ;
743 [label="gini = 0.0\nsamples = 7\nvalue = [0, 7]\nclass = yes", fillcolor="#399de5"] ;
742 -> 743 ;
744 [label="gini = 0.0\nsamples = 1\nvalue = [1, 0]\nclass = no", fillcolor="#e58139"] ;
742 -> 744 ;
745 [label="gini = 0.0\nsamples = 19\nvalue = [0, 19]\nclass = yes", fillcolor="#399de5"] ;
741 -> 745 ;
746 [label="km_por_ano <= 22928.267\ngini = 0.388\nsamples = 19\nvalue = [5, 14]\nclass = yes", fillcolor="#80c0ee"] ;
740 -> 746 ;
747 [label="gini = 0.0\nsamples = 2\nvalue = [2, 0]\nclass = no", fillcolor="#e58139"] ;
746 -> 747 ;
748 [label="idade_do_modelo <= 19.5\ngini = 0.291\nsamples = 17\nvalue = [3, 14]\nclass = yes", fillcolor="#63b2eb"] ;
746 -> 748 ;
749 [label="preco <= 58968.479\ngini = 0.219\nsamples = 16\nvalue = [2, 14]\nclass = yes", fillcolor="#55abe9"] ;
748 -> 749 ;
750 [label="gini = 0.0\nsamples = 11\nvalue = [0, 11]\nclass = yes", fillcolor="#399de5"] ;
749 -> 750 ;
751 [label="km_por_ano <= 26991.046\ngini = 0.48\nsamples = 5\nvalue = [2, 3]\nclass = yes", fillcolor="#bddef6"] ;
749 -> 751 ;
752 [label="idade_do_modelo <= 12.5\ngini = 0.444\nsamples = 3\nvalue = [2, 1]\nclass = no", fillcolor="#f2c09c"] ;
751 -> 752 ;
753 [label="gini = 0.0\nsamples = 1\nvalue = [0, 1]\nclass = yes", fillcolor="#399de5"] ;
752 -> 753 ;
754 [label="gini = 0.0\nsamples = 2\nvalue = [2, 0]\nclass = no", fillcolor="#e58139"] ;
752 -> 754 ;
755 [label="gini = 0.0\nsamples = 2\nvalue = [0, 2]\nclass = yes", fillcolor="#399de5"] ;
751 -> 755 ;
756 [label="gini = 0.0\nsamples = 1\nvalue = [1, 0]\nclass = no", fillcolor="#e58139"] ;
748 -> 756 ;
757 [label="km_por_ano <= 17210.282\ngini = 0.444\nsamples = 3\nvalue = [2, 1]\nclass = no", fillcolor="#f2c09c"] ;
739 -> 757 ;
758 [label="gini = 0.0\nsamples = 1\nvalue = [0, 1]\nclass = yes", fillcolor="#399de5"] ;
757 -> 758 ;
759 [label="gini = 0.0\nsamples = 2\nvalue = [2, 0]\nclass = no", fillcolor="#e58139"] ;
757 -> 759 ;
760 [label="idade_do_modelo <= 15.5\ngini = 0.122\nsamples = 46\nvalue = [3, 43]\nclass = yes", fillcolor="#47a4e7"] ;
738 -> 760 ;
761 [label="gini = 0.0\nsamples = 21\nvalue = [0, 21]\nclass = yes", fillcolor="#399de5"] ;
760 -> 761 ;
762 [label="preco <= 59442.629\ngini = 0.211\nsamples = 25\nvalue = [3, 22]\nclass = yes", fillcolor="#54aae9"] ;
760 -> 762 ;
763 [label="gini = 0.0\nsamples = 8\nvalue = [0, 8]\nclass = yes", fillcolor="#399de5"] ;
762 -> 763 ;
764 [label="preco <= 59453.855\ngini = 0.291\nsamples = 17\nvalue = [3, 14]\nclass = yes", fillcolor="#63b2eb"] ;
762 -> 764 ;
765 [label="gini = 0.0\nsamples = 1\nvalue = [1, 0]\nclass = no", fillcolor="#e58139"] ;
764 -> 765 ;
766 [label="km_por_ano <= 20835.32\ngini = 0.219\nsamples = 16\nvalue = [2, 14]\nclass = yes", fillcolor="#55abe9"] ;
764 -> 766 ;
767 [label="km_por_ano <= 19314.494\ngini = 0.408\nsamples = 7\nvalue = [2, 5]\nclass = yes", fillcolor="#88c4ef"] ;
766 -> 767 ;
768 [label="gini = 0.0\nsamples = 5\nvalue = [0, 5]\nclass = yes", fillcolor="#399de5"] ;
767 -> 768 ;
769 [label="gini = 0.0\nsamples = 2\nvalue = [2, 0]\nclass = no", fillcolor="#e58139"] ;
767 -> 769 ;
770 [label="gini = 0.0\nsamples = 9\nvalue = [0, 9]\nclass = yes", fillcolor="#399de5"] ;
766 -> 770 ;
771 [label="idade_do_modelo <= 17.5\ngini = 0.456\nsamples = 54\nvalue = [19, 35]\nclass = yes", fillcolor="#a4d2f3"] ;
441 -> 771 ;
772 [label="preco <= 52525.738\ngini = 0.497\nsamples = 41\nvalue = [19, 22]\nclass = yes", fillcolor="#e4f2fb"] ;
771 -> 772 ;
773 [label="gini = 0.0\nsamples = 5\nvalue = [0, 5]\nclass = yes", fillcolor="#399de5"] ;
772 -> 773 ;
774 [label="preco <= 58291.846\ngini = 0.498\nsamples = 36\nvalue = [19, 17]\nclass = no", fillcolor="#fcf2ea"] ;
772 -> 774 ;
775 [label="km_por_ano <= 50741.686\ngini = 0.466\nsamples = 27\nvalue = [17, 10]\nclass = no", fillcolor="#f4cbad"] ;
774 -> 775 ;
776 [label="km_por_ano <= 42410.938\ngini = 0.435\nsamples = 25\nvalue = [17, 8]\nclass = no", fillcolor="#f1bc96"] ;
775 -> 776 ;
777 [label="km_por_ano <= 36251.994\ngini = 0.488\nsamples = 19\nvalue = [11, 8]\nclass = no", fillcolor="#f8ddc9"] ;
776 -> 777 ;
778 [label="gini = 0.0\nsamples = 2\nvalue = [2, 0]\nclass = no", fillcolor="#e58139"] ;
777 -> 778 ;
779 [label="km_por_ano <= 36361.43\ngini = 0.498\nsamples = 17\nvalue = [9, 8]\nclass = no", fillcolor="#fcf1e9"] ;
777 -> 779 ;
780 [label="gini = 0.0\nsamples = 2\nvalue = [0, 2]\nclass = yes", fillcolor="#399de5"] ;
779 -> 780 ;
781 [label="km_por_ano <= 42019.867\ngini = 0.48\nsamples = 15\nvalue = [9, 6]\nclass = no", fillcolor="#f6d5bd"] ;
779 -> 781 ;
782 [label="idade_do_modelo <= 8.0\ngini = 0.459\nsamples = 14\nvalue = [9, 5]\nclass = no", fillcolor="#f3c7a7"] ;
781 -> 782 ;
783 [label="gini = 0.0\nsamples = 1\nvalue = [0, 1]\nclass = yes", fillcolor="#399de5"] ;
782 -> 783 ;
784 [label="preco <= 56029.051\ngini = 0.426\nsamples = 13\nvalue = [9, 4]\nclass = no", fillcolor="#f1b991"] ;
782 -> 784 ;
785 [label="km_por_ano <= 37299.674\ngini = 0.245\nsamples = 7\nvalue = [6, 1]\nclass = no", fillcolor="#e9965a"] ;
784 -> 785 ;
786 [label="km_por_ano <= 36689.734\ngini = 0.444\nsamples = 3\nvalue = [2, 1]\nclass = no", fillcolor="#f2c09c"] ;
785 -> 786 ;
787 [label="gini = 0.0\nsamples = 2\nvalue = [2, 0]\nclass = no", fillcolor="#e58139"] ;
786 -> 787 ;
788 [label="gini = 0.0\nsamples = 1\nvalue = [0, 1]\nclass = yes", fillcolor="#399de5"] ;
786 -> 788 ;
789 [label="gini = 0.0\nsamples = 4\nvalue = [4, 0]\nclass = no", fillcolor="#e58139"] ;
785 -> 789 ;
790 [label="idade_do_modelo <= 12.0\ngini = 0.5\nsamples = 6\nvalue = [3, 3]\nclass = no", fillcolor="#ffffff"] ;
784 -> 790 ;
791 [label="km_por_ano <= 37881.449\ngini = 0.375\nsamples = 4\nvalue = [3, 1]\nclass = no", fillcolor="#eeab7b"] ;
790 -> 791 ;
792 [label="preco <= 57639.891\ngini = 0.5\nsamples = 2\nvalue = [1, 1]\nclass = no", fillcolor="#ffffff"] ;
791 -> 792 ;
793 [label="gini = 0.0\nsamples = 1\nvalue = [0, 1]\nclass = yes", fillcolor="#399de5"] ;
792 -> 793 ;
794 [label="gini = 0.0\nsamples = 1\nvalue = [1, 0]\nclass = no", fillcolor="#e58139"] ;
792 -> 794 ;
795 [label="gini = 0.0\nsamples = 2\nvalue = [2, 0]\nclass = no", fillcolor="#e58139"] ;
791 -> 795 ;
796 [label="gini = 0.0\nsamples = 2\nvalue = [0, 2]\nclass = yes", fillcolor="#399de5"] ;
790 -> 796 ;
797 [label="gini = 0.0\nsamples = 1\nvalue = [0, 1]\nclass = yes", fillcolor="#399de5"] ;
781 -> 797 ;
798 [label="gini = 0.0\nsamples = 6\nvalue = [6, 0]\nclass = no", fillcolor="#e58139"] ;
776 -> 798 ;
799 [label="gini = 0.0\nsamples = 2\nvalue = [0, 2]\nclass = yes", fillcolor="#399de5"] ;
775 -> 799 ;
800 [label="idade_do_modelo <= 14.0\ngini = 0.346\nsamples = 9\nvalue = [2, 7]\nclass = yes", fillcolor="#72b9ec"] ;
774 -> 800 ;
801 [label="gini = 0.0\nsamples = 5\nvalue = [0, 5]\nclass = yes", fillcolor="#399de5"] ;
800 -> 801 ;
802 [label="preco <= 58856.904\ngini = 0.5\nsamples = 4\nvalue = [2, 2]\nclass = no", fillcolor="#ffffff"] ;
800 -> 802 ;
803 [label="gini = 0.0\nsamples = 2\nvalue = [2, 0]\nclass = no", fillcolor="#e58139"] ;
802 -> 803 ;
804 [label="gini = 0.0\nsamples = 2\nvalue = [0, 2]\nclass = yes", fillcolor="#399de5"] ;
802 -> 804 ;
805 [label="gini = 0.0\nsamples = 13\nvalue = [0, 13]\nclass = yes", fillcolor="#399de5"] ;
771 -> 805 ;
806 [label="km_por_ano <= 24124.006\ngini = 0.45\nsamples = 3768\nvalue = [2481, 1287]\nclass = no", fillcolor="#f2c2a0"] ;
0 -> 806 [labeldistance=2.5, labelangle=-45, headlabel="False"] ;
807 [label="preco <= 99974.41\ngini = 0.497\nsamples = 2327\nvalue = [1246, 1081]\nclass = no", fillcolor="#fceee5"] ;
806 -> 807 ;
808 [label="km_por_ano <= 23890.652\ngini = 0.489\nsamples = 1956\nvalue = [1121, 835]\nclass = no", fillcolor="#f8dfcc"] ;
807 -> 808 ;
809 [label="km_por_ano <= 10016.532\ngini = 0.489\nsamples = 1940\nvalue = [1117, 823]\nclass = no", fillcolor="#f8decb"] ;
808 -> 809 ;
810 [label="km_por_ano <= 6826.016\ngini = 0.487\nsamples = 69\nvalue = [29, 40]\nclass = yes", fillcolor="#c9e4f8"] ;
809 -> 810 ;
811 [label="gini = 0.0\nsamples = 6\nvalue = [6, 0]\nclass = no", fillcolor="#e58139"] ;
810 -> 811 ;
812 [label="preco <= 66984.508\ngini = 0.464\nsamples = 63\nvalue = [23, 40]\nclass = yes", fillcolor="#abd5f4"] ;
810 -> 812 ;
813 [label="idade_do_modelo <= 16.5\ngini = 0.165\nsamples = 11\nvalue = [1, 10]\nclass = yes", fillcolor="#4da7e8"] ;
812 -> 813 ;
814 [label="gini = 0.0\nsamples = 6\nvalue = [0, 6]\nclass = yes", fillcolor="#399de5"] ;
813 -> 814 ;
815 [label="idade_do_modelo <= 18.5\ngini = 0.32\nsamples = 5\nvalue = [1, 4]\nclass = yes", fillcolor="#6ab6ec"] ;
813 -> 815 ;
816 [label="gini = 0.0\nsamples = 1\nvalue = [1, 0]\nclass = no", fillcolor="#e58139"] ;
815 -> 816 ;
817 [label="gini = 0.0\nsamples = 4\nvalue = [0, 4]\nclass = yes", fillcolor="#399de5"] ;
815 -> 817 ;
818 [label="idade_do_modelo <= 12.5\ngini = 0.488\nsamples = 52\nvalue = [22, 30]\nclass = yes", fillcolor="#cae5f8"] ;
812 -> 818 ;
819 [label="km_por_ano <= 7792.424\ngini = 0.486\nsamples = 24\nvalue = [14, 10]\nclass = no", fillcolor="#f8dbc6"] ;
818 -> 819 ;
820 [label="gini = 0.0\nsamples = 2\nvalue = [0, 2]\nclass = yes", fillcolor="#399de5"] ;
819 -> 820 ;
821 [label="km_por_ano <= 9808.123\ngini = 0.463\nsamples = 22\nvalue = [14, 8]\nclass = no", fillcolor="#f4c9aa"] ;
819 -> 821 ;
822 [label="km_por_ano <= 9200.597\ngini = 0.42\nsamples = 20\nvalue = [14, 6]\nclass = no", fillcolor="#f0b78e"] ;
821 -> 822 ;
823 [label="km_por_ano <= 8325.92\ngini = 0.496\nsamples = 11\nvalue = [6, 5]\nclass = no", fillcolor="#fbeade"] ;
822 -> 823 ;
824 [label="gini = 0.0\nsamples = 4\nvalue = [4, 0]\nclass = no", fillcolor="#e58139"] ;
823 -> 824 ;
825 [label="preco <= 69114.668\ngini = 0.408\nsamples = 7\nvalue = [2, 5]\nclass = yes", fillcolor="#88c4ef"] ;
823 -> 825 ;
826 [label="gini = 0.0\nsamples = 1\nvalue = [1, 0]\nclass = no", fillcolor="#e58139"] ;
825 -> 826 ;
827 [label="idade_do_modelo <= 8.5\ngini = 0.278\nsamples = 6\nvalue = [1, 5]\nclass = yes", fillcolor="#61b1ea"] ;
825 -> 827 ;
828 [label="idade_do_modelo <= 5.5\ngini = 0.5\nsamples = 2\nvalue = [1, 1]\nclass = no", fillcolor="#ffffff"] ;
827 -> 828 ;
829 [label="gini = 0.0\nsamples = 1\nvalue = [0, 1]\nclass = yes", fillcolor="#399de5"] ;
828 -> 829 ;
830 [label="gini = 0.0\nsamples = 1\nvalue = [1, 0]\nclass = no", fillcolor="#e58139"] ;
828 -> 830 ;
831 [label="gini = 0.0\nsamples = 4\nvalue = [0, 4]\nclass = yes", fillcolor="#399de5"] ;
827 -> 831 ;
832 [label="preco <= 77795.586\ngini = 0.198\nsamples = 9\nvalue = [8, 1]\nclass = no", fillcolor="#e89152"] ;
822 -> 832 ;
833 [label="preco <= 76238.727\ngini = 0.5\nsamples = 2\nvalue = [1, 1]\nclass = no", fillcolor="#ffffff"] ;
832 -> 833 ;
834 [label="gini = 0.0\nsamples = 1\nvalue = [1, 0]\nclass = no", fillcolor="#e58139"] ;
833 -> 834 ;
835 [label="gini = 0.0\nsamples = 1\nvalue = [0, 1]\nclass = yes", fillcolor="#399de5"] ;
833 -> 835 ;
836 [label="gini = 0.0\nsamples = 7\nvalue = [7, 0]\nclass = no", fillcolor="#e58139"] ;
832 -> 836 ;
837 [label="gini = 0.0\nsamples = 2\nvalue = [0, 2]\nclass = yes", fillcolor="#399de5"] ;
821 -> 837 ;
838 [label="idade_do_modelo <= 16.5\ngini = 0.408\nsamples = 28\nvalue = [8, 20]\nclass = yes", fillcolor="#88c4ef"] ;
818 -> 838 ;
839 [label="preco <= 90273.949\ngini = 0.18\nsamples = 10\nvalue = [1, 9]\nclass = yes", fillcolor="#4fa8e8"] ;
838 -> 839 ;
840 [label="gini = 0.0\nsamples = 8\nvalue = [0, 8]\nclass = yes", fillcolor="#399de5"] ;
839 -> 840 ;
841 [label="idade_do_modelo <= 13.5\ngini = 0.5\nsamples = 2\nvalue = [1, 1]\nclass = no", fillcolor="#ffffff"] ;
839 -> 841 ;
842 [label="gini = 0.0\nsamples = 1\nvalue = [0, 1]\nclass = yes", fillcolor="#399de5"] ;
841 -> 842 ;
843 [label="gini = 0.0\nsamples = 1\nvalue = [1, 0]\nclass = no", fillcolor="#e58139"] ;
841 -> 843 ;
844 [label="km_por_ano <= 9630.291\ngini = 0.475\nsamples = 18\nvalue = [7, 11]\nclass = yes", fillcolor="#b7dbf6"] ;
838 -> 844 ;
845 [label="km_por_ano <= 9273.017\ngini = 0.43\nsamples = 16\nvalue = [5, 11]\nclass = yes", fillcolor="#93caf1"] ;
844 -> 845 ;
846 [label="km_por_ano <= 8927.009\ngini = 0.486\nsamples = 12\nvalue = [5, 7]\nclass = yes", fillcolor="#c6e3f8"] ;
845 -> 846 ;
847 [label="km_por_ano <= 7460.9\ngini = 0.346\nsamples = 9\nvalue = [2, 7]\nclass = yes", fillcolor="#72b9ec"] ;
846 -> 847 ;
848 [label="gini = 0.0\nsamples = 1\nvalue = [1, 0]\nclass = no", fillcolor="#e58139"] ;
847 -> 848 ;
849 [label="preco <= 69705.73\ngini = 0.219\nsamples = 8\nvalue = [1, 7]\nclass = yes", fillcolor="#55abe9"] ;
847 -> 849 ;
850 [label="km_por_ano <= 8281.664\ngini = 0.5\nsamples = 2\nvalue = [1, 1]\nclass = no", fillcolor="#ffffff"] ;
849 -> 850 ;
851 [label="gini = 0.0\nsamples = 1\nvalue = [0, 1]\nclass = yes", fillcolor="#399de5"] ;
850 -> 851 ;
852 [label="gini = 0.0\nsamples = 1\nvalue = [1, 0]\nclass = no", fillcolor="#e58139"] ;
850 -> 852 ;
853 [label="gini = 0.0\nsamples = 6\nvalue = [0, 6]\nclass = yes", fillcolor="#399de5"] ;
849 -> 853 ;
854 [label="gini = 0.0\nsamples = 3\nvalue = [3, 0]\nclass = no", fillcolor="#e58139"] ;
846 -> 854 ;
855 [label="gini = 0.0\nsamples = 4\nvalue = [0, 4]\nclass = yes", fillcolor="#399de5"] ;
845 -> 855 ;
856 [label="gini = 0.0\nsamples = 2\nvalue = [2, 0]\nclass = no", fillcolor="#e58139"] ;
844 -> 856 ;
857 [label="preco <= 91791.605\ngini = 0.487\nsamples = 1871\nvalue = [1088, 783]\nclass = no", fillcolor="#f8dcc7"] ;
809 -> 857 ;
858 [label="preco <= 85445.023\ngini = 0.49\nsamples = 1543\nvalue = [878, 665]\nclass = no", fillcolor="#f9e0cf"] ;
857 -> 858 ;
859 [label="preco <= 84216.566\ngini = 0.486\nsamples = 1243\nvalue = [724, 519]\nclass = no", fillcolor="#f8dbc7"] ;
858 -> 859 ;
860 [label="preco <= 84120.492\ngini = 0.489\nsamples = 1193\nvalue = [686, 507]\nclass = no", fillcolor="#f8decb"] ;
859 -> 860 ;
861 [label="preco <= 74795.609\ngini = 0.488\nsamples = 1189\nvalue = [686, 503]\nclass = no", fillcolor="#f8ddca"] ;
860 -> 861 ;
862 [label="preco <= 74326.207\ngini = 0.494\nsamples = 736\nvalue = [407, 329]\nclass = no", fillcolor="#fae7d9"] ;
861 -> 862 ;
